{"learner":{"attributes":{},"feature_names":["Rainfall_mm","Temperature_Celsius","Fertilizer_Used","Irrigation_Used","Days_to_Harvest","Crop_Cotton","Crop_Maize","Crop_Rice","Crop_Soybean","Crop_Wheat","Soil_Type_Clay","Soil_Type_Loam","Soil_Type_Peaty","Soil_Type_Sandy","Soil_Type_Silt","Weather_Condition_Rainy","Weather_Condition_Sunny"],"feature_types":["float","float","int","int","int","i","i","i","i","i","i","i","i","i","i","i","i"],"gradient_booster":{"model":{"cats":{"enc":[],"feature_segments":[],"sorted_idx":[]},"gbtree_model_param":{"num_parallel_tree":"1","num_trees":"100"},"iteration_indptr":[0,1,2,3,4,5,6,7,8,9,10,11,12,13,14,15,16,17,18,19,20,21,22,23,24,25,26,27,28,29,30,31,32,33,34,35,36,37,38,39,40,41,42,43,44,45,46,47,48,49,50,51,52,53,54,55,56,57,58,59,60,61,62,63,64,65,66,67,68,69,70,71,72,73,74,75,76,77,78,79,80,81,82,83,84,85,86,87,88,89,90,91,92,93,94,95,96,97,98,99,100],"tree_info":[0,0,0,0,0,0,0,0,0,0,0,0,0,0,0,0,0,0,0,0,0,0,0,0,0,0,0,0,0,0,0,0,0,0,0,0,0,0,0,0,0,0,0,0,0,0,0,0,0,0,0,0,0,0,0,0,0,0,0,0,0,0,0,0,0,0,0,0,0,0,0,0,0,0,0,0,0,0,0,0,0,0,0,0,0,0,0,0,0,0,0,0,0,0,0,0,0,0,0,0],"trees":[{"base_weights":[3.904002E-2,-1.1457877E0,1.1521837E0,-1.8279332E0,-3.479146E-1,4.3427512E-1,1.7255098E0,-1.2375186E-1,-5.719443E-2,-4.584795E-2,1.3907504E-2,-1.38535565E-2,5.249588E-2,5.65007E-2,1.13347985E-1],"categories":[],"categories_nodes":[],"categories_segments":[],"categories_sizes":[],"default_left":[0,0,0,0,0,0,0,0,0,0,0,0,0,0,0],"id":0,"left_children":[1,3,5,7,9,11,13,-1,-1,-1,-1,-1,-1,-1,-1],"loss_changes":[6.779074E2,1.3488614E2,1.0832352E2,5.6483673E1,4.1581047E1,5.2405163E1,4.4835663E1,0E0,0E0,0E0,0E0,0E0,0E0,0E0,0E0],"parents":[2147483647,0,0,1,1,2,2,3,3,4,4,5,5,6,6],"right_children":[2,4,6,8,10,12,14,-1,-1,-1,-1,-1,-1,-1,-1],"split_conditions":[5.464366E2,1E0,1E0,1E0,1E0,1E0,1E0,-1.2375186E-1,-5.719443E-2,-4.584795E-2,1.3907504E-2,-1.38535565E-2,5.249588E-2,5.65007E-2,1.13347985E-1],"split_indices":[0,2,2,3,3,3,3,0,0,0,0,0,0,0,0],"split_type":[0,0,0,0,0,0,0,0,0,0,0,0,0,0,0],"sum_hessian":[5.12E2,2.48E2,2.64E2,1.33E2,1.15E2,1.18E2,1.46E2,6.7E1,6.6E1,6E1,5.5E1,5.5E1,6.3E1,7.1E1,7.5E1],"tree_param":{"num_deleted":"0","num_feature":"17","num_nodes":"15","size_leaf_vector":"1"}},{"base_weights":[-1.9962346E-2,-1.0313566E0,1.1666515E0,-1.7627804E0,-2.5918153E-1,5.4611176E-1,1.7165918E0,-1.1930857E-1,-5.4788638E-2,-3.846633E-2,1.51419705E-2,-5.514846E-3,5.375995E-2,5.9241462E-2,1.09789245E-1],"categories":[],"categories_nodes":[],"categories_segments":[],"categories_sizes":[],"default_left":[0,0,0,0,0,0,0,0,0,0,0,0,0,0,0],"id":1,"left_children":[1,3,5,7,9,11,13,-1,-1,-1,-1,-1,-1,-1,-1],"loss_changes":[6.024705E2,1.526005E2,7.7893585E1,5.5182373E1,3.8365707E1,3.832131E1,2.8486023E1,0E0,0E0,0E0,0E0,0E0,0E0,0E0,0E0],"parents":[2147483647,0,0,1,1,2,2,3,3,4,4,5,5,6,6],"right_children":[2,4,6,8,10,12,14,-1,-1,-1,-1,-1,-1,-1,-1],"split_conditions":[5.770727E2,1E0,1E0,3.483354E2,1E0,7.733103E2,1E0,-1.1930857E-1,-5.4788638E-2,-3.846633E-2,1.51419705E-2,-5.514846E-3,5.375995E-2,5.9241462E-2,1.09789245E-1],"split_indices":[0,2,2,0,3,0,3,0,0,0,0,0,0,0,0],"split_type":[0,0,0,0,0,0,0,0,0,0,0,0,0,0,0],"sum_hessian":[5E2,2.7E2,2.3E2,1.38E2,1.32E2,1.09E2,1.21E2,7E1,6.8E1,6.9E1,6.3E1,4.9E1,6E1,5.9E1,6.2E1],"tree_param":{"num_deleted":"0","num_feature":"17","num_nodes":"15","size_leaf_vector":"1"}},{"base_weights":[3.107852E-2,-1.188626E0,9.9052763E-1,-1.8199468E0,-4.3660915E-1,3.7311953E-1,1.5400441E0,-1.17989354E-1,-5.363058E-2,-5.2467763E-2,7.509044E-3,-1.1775407E-2,4.837595E-2,4.8422683E-2,1.0110273E-1],"categories":[],"categories_nodes":[],"categories_segments":[],"categories_sizes":[],"default_left":[0,0,0,0,0,0,0,0,0,0,0,0,0,0,0],"id":2,"left_children":[1,3,5,7,9,11,13,-1,-1,-1,-1,-1,-1,-1,-1],"loss_changes":[5.98002E2,1.0602725E2,9.645828E1,4.668872E1,3.755114E1,4.9428303E1,3.9644165E1,0E0,0E0,0E0,0E0,0E0,0E0,0E0,0E0],"parents":[2147483647,0,0,1,1,2,2,3,3,4,4,5,5,6,6],"right_children":[2,4,6,8,10,12,14,-1,-1,-1,-1,-1,-1,-1,-1],"split_conditions":[5.0896616E2,1E0,1E0,1E0,1E0,1E0,1E0,-1.17989354E-1,-5.363058E-2,-5.2467763E-2,7.509044E-3,-1.1775407E-2,4.837595E-2,4.8422683E-2,1.0110273E-1],"split_indices":[0,2,3,3,3,2,2,0,0,0,0,0,0,0,0],"split_type":[0,0,0,0,0,0,0,0,0,0,0,0,0,0,0],"sum_hessian":[5.09E2,2.24E2,2.85E2,1.21E2,1.03E2,1.35E2,1.5E2,6.9E1,5.2E1,5E1,5.3E1,6.7E1,6.8E1,7E1,8E1],"tree_param":{"num_deleted":"0","num_feature":"17","num_nodes":"15","size_leaf_vector":"1"}},{"base_weights":[-5.9658266E-4,-1.0560247E0,1.0348445E0,-1.6203862E0,-3.6792824E-1,4.2308912E-1,1.5495251E0,-1.1022138E-1,-4.7619697E-2,-4.592954E-2,7.2130184E-3,-1.7659007E-2,4.4879172E-2,5.0542116E-2,9.689626E-2],"categories":[],"categories_nodes":[],"categories_segments":[],"categories_sizes":[],"default_left":[0,0,0,0,0,0,0,0,0,0,0,0,0,0,0],"id":3,"left_children":[1,3,5,7,9,11,13,-1,-1,-1,-1,-1,-1,-1,-1],"loss_changes":[5.7155194E2,9.9982635E1,8.24671E1,5.3299713E1,3.3413597E1,4.5253914E1,2.7960175E1,0E0,0E0,0E0,0E0,0E0,0E0,0E0,0E0],"parents":[2147483647,0,0,1,1,2,2,3,3,4,4,5,5,6,6],"right_children":[2,4,6,8,10,12,14,-1,-1,-1,-1,-1,-1,-1,-1],"split_conditions":[5.464366E2,1E0,1E0,3.483354E2,1E0,7.4768274E2,1E0,-1.1022138E-1,-4.7619697E-2,-4.592954E-2,7.2130184E-3,-1.7659007E-2,4.4879172E-2,5.0542116E-2,9.689626E-2],"split_indices":[0,2,2,0,3,0,3,0,0,0,0,0,0,0,0],"split_type":[0,0,0,0,0,0,0,0,0,0,0,0,0,0,0],"sum_hessian":[5.21E2,2.58E2,2.63E2,1.41E2,1.17E2,1.21E2,1.42E2,7.4E1,6.7E1,5.6E1,6.1E1,4.6E1,7.5E1,6.1E1,8.1E1],"tree_param":{"num_deleted":"0","num_feature":"17","num_nodes":"15","size_leaf_vector":"1"}},{"base_weights":[5.072444E-2,-9.634219E-1,9.93317E-1,-1.5611551E0,-2.5432584E-1,4.1197455E-1,1.4769439E0,-1.0804663E-1,-4.0521886E-2,-3.721355E-2,9.981456E-3,-9.10834E-3,4.6007853E-2,4.414963E-2,9.439838E-2],"categories":[],"categories_nodes":[],"categories_segments":[],"categories_sizes":[],"default_left":[0,0,0,0,0,0,0,0,0,0,0,0,0,0,0],"id":4,"left_children":[1,3,5,7,9,11,13,-1,-1,-1,-1,-1,-1,-1,-1],"loss_changes":[4.9803888E2,1.0598938E2,7.5302826E1,5.9484497E1,2.5948486E1,3.7607216E1,3.4219757E1,0E0,0E0,0E0,0E0,0E0,0E0,0E0,0E0],"parents":[2147483647,0,0,1,1,2,2,3,3,4,4,5,5,6,6],"right_children":[2,4,6,8,10,12,14,-1,-1,-1,-1,-1,-1,-1,-1],"split_conditions":[5.464366E2,1E0,1E0,1E0,1E0,1E0,7.122092E2,-1.0804663E-1,-4.0521886E-2,-3.721355E-2,9.981456E-3,-9.10834E-3,4.6007853E-2,4.414963E-2,9.439838E-2],"split_indices":[0,2,3,3,3,2,0,0,0,0,0,0,0,0,0],"split_type":[0,0,0,0,0,0,0,0,0,0,0,0,0,0,0],"sum_hessian":[5.19E2,2.5E2,2.69E2,1.35E2,1.15E2,1.23E2,1.46E2,7.4E1,6.1E1,5.5E1,6E1,5.7E1,6.6E1,6.1E1,8.5E1],"tree_param":{"num_deleted":"0","num_feature":"17","num_nodes":"15","size_leaf_vector":"1"}},{"base_weights":[-2.8408697E-2,-1.0400516E0,8.230387E-1,-1.5996026E0,-3.4652594E-1,3.0000445E-1,1.3223612E0,-1.10458136E-1,-5.606925E-2,-5.7388354E-2,-1.8935374E-3,-1.4539468E-2,4.3100756E-2,4.151265E-2,9.3369596E-2],"categories":[],"categories_nodes":[],"categories_segments":[],"categories_sizes":[],"default_left":[0,0,0,0,0,0,0,0,0,0,0,0,0,0,0],"id":5,"left_children":[1,3,5,7,9,11,13,-1,-1,-1,-1,-1,-1,-1,-1],"loss_changes":[4.504863E2,9.219272E1,7.3773544E1,3.6001007E1,2.6665712E1,4.6735207E1,3.7340622E1,0E0,0E0,0E0,0E0,0E0,0E0,0E0,0E0],"parents":[2147483647,0,0,1,1,2,2,3,3,4,4,5,5,6,6],"right_children":[2,4,6,8,10,12,14,-1,-1,-1,-1,-1,-1,-1,-1],"split_conditions":[5.0896616E2,1E0,1E0,2.6295026E2,2.2208197E2,7.743957E2,7.406804E2,-1.10458136E-1,-5.606925E-2,-5.7388354E-2,-1.8935374E-3,-1.4539468E-2,4.3100756E-2,4.151265E-2,9.3369596E-2],"split_indices":[0,2,2,0,0,0,0,0,0,0,0,0,0,0,0],"split_type":[0,0,0,0,0,0,0,0,0,0,0,0,0,0,0],"sum_hessian":[5.21E2,2.38E2,2.83E2,1.31E2,1.07E2,1.39E2,1.44E2,5.6E1,7.5E1,2.9E1,7.8E1,6.8E1,7.1E1,7.7E1,6.7E1],"tree_param":{"num_deleted":"0","num_feature":"17","num_nodes":"15","size_leaf_vector":"1"}},{"base_weights":[-3.3161324E-2,-9.240158E-1,8.930359E-1,-1.4203203E0,-3.2075027E-1,3.373369E-1,1.3840123E0,-9.364032E-2,-3.8697045E-2,-5.4606687E-2,-1.3918284E-3,-1.0440994E-2,4.173967E-2,4.6706587E-2,8.8502266E-2],"categories":[],"categories_nodes":[],"categories_segments":[],"categories_sizes":[],"default_left":[0,0,0,0,0,0,0,0,0,0,0,0,0,0,0],"id":6,"left_children":[1,3,5,7,9,11,13,-1,-1,-1,-1,-1,-1,-1,-1],"loss_changes":[4.2575522E2,7.828755E1,6.856041E1,4.066736E1,2.708345E1,3.2777023E1,2.1618164E1,0E0,0E0,0E0,0E0,0E0,0E0,0E0,0E0],"parents":[2147483647,0,0,1,1,2,2,3,3,4,4,5,5,6,6],"right_children":[2,4,6,8,10,12,14,-1,-1,-1,-1,-1,-1,-1,-1],"split_conditions":[5.6252625E2,1E0,1E0,1E0,2.2739667E2,1E0,1E0,-9.364032E-2,-3.8697045E-2,-5.4606687E-2,-1.3918284E-3,-1.0440994E-2,4.173967E-2,4.6706587E-2,8.8502266E-2],"split_indices":[0,2,2,3,0,3,3,0,0,0,0,0,0,0,0],"split_type":[0,0,0,0,0,0,0,0,0,0,0,0,0,0,0],"sum_hessian":[5.14E2,2.62E2,2.52E2,1.43E2,1.19E2,1.19E2,1.33E2,8.3E1,6E1,3.2E1,8.7E1,5.7E1,6.2E1,6.3E1,7E1],"tree_param":{"num_deleted":"0","num_feature":"17","num_nodes":"15","size_leaf_vector":"1"}},{"base_weights":[-2.1728305E-2,-9.683739E-1,7.244879E-1,-1.4486974E0,-3.655391E-1,1.899257E-1,1.1949191E0,-9.404714E-2,-4.629812E-2,-4.166309E-2,4.130283E-3,-1.3394596E-2,3.7860394E-2,3.5020404E-2,7.91144E-2],"categories":[],"categories_nodes":[],"categories_segments":[],"categories_sizes":[],"default_left":[0,0,0,0,0,0,0,0,0,0,0,0,0,0,0],"id":7,"left_children":[1,3,5,7,9,11,13,-1,-1,-1,-1,-1,-1,-1,-1],"loss_changes":[3.6379236E2,6.51996E1,7.2197784E1,2.6727966E1,2.1448795E1,3.552365E1,2.8200165E1,0E0,0E0,0E0,0E0,0E0,0E0,0E0,0E0],"parents":[2147483647,0,0,1,1,2,2,3,3,4,4,5,5,6,6],"right_children":[2,4,6,8,10,12,14,-1,-1,-1,-1,-1,-1,-1,-1],"split_conditions":[4.8284552E2,1E0,1E0,1E0,1E0,7.4768274E2,7.0163745E2,-9.404714E-2,-4.629812E-2,-4.166309E-2,4.130283E-3,-1.3394596E-2,3.7860394E-2,3.5020404E-2,7.91144E-2],"split_indices":[0,2,3,3,3,0,0,0,0,0,0,0,0,0,0],"split_type":[0,0,0,0,0,0,0,0,0,0,0,0,0,0,0],"sum_hessian":[5.13E2,2.26E2,2.87E2,1.25E2,1.01E2,1.35E2,1.52E2,6.7E1,5.8E1,4.9E1,5.2E1,7.5E1,6E1,6.8E1,8.4E1],"tree_param":{"num_deleted":"0","num_feature":"17","num_nodes":"15","size_leaf_vector":"1"}},{"base_weights":[5.1627755E-3,-1.0450221E0,6.35908E-1,-1.5576699E0,-3.966202E-1,9.4739504E-2,1.1224024E0,-1.0016477E-1,-5.1962018E-2,-4.097789E-2,8.166986E-4,-2.5821367E-2,3.1188345E-2,3.3494473E-2,7.9432614E-2],"categories":[],"categories_nodes":[],"categories_segments":[],"categories_sizes":[],"default_left":[0,0,0,0,0,0,0,0,0,0,0,0,0,0,0],"id":8,"left_children":[1,3,5,7,9,11,13,-1,-1,-1,-1,-1,-1,-1,-1],"loss_changes":[3.424625E2,6.386815E1,8.493161E1,2.2868835E1,1.5208273E1,5.011403E1,3.4803085E1,0E0,0E0,0E0,0E0,0E0,0E0,0E0,0E0],"parents":[2147483647,0,0,1,1,2,2,3,3,4,4,5,5,6,6],"right_children":[2,4,6,8,10,12,14,-1,-1,-1,-1,-1,-1,-1,-1],"split_conditions":[4.3465466E2,1E0,1E0,1E0,1E0,6.833995E2,7.122092E2,-1.0016477E-1,-5.1962018E-2,-4.097789E-2,8.166986E-4,-2.5821367E-2,3.1188345E-2,3.3494473E-2,7.9432614E-2],"split_indices":[0,2,3,3,3,0,0,0,0,0,0,0,0,0,0],"split_type":[0,0,0,0,0,0,0,0,0,0,0,0,0,0,0],"sum_hessian":[5.15E2,1.93E2,3.22E2,1.07E2,8.6E1,1.53E2,1.69E2,5.6E1,5.1E1,4.2E1,4.4E1,7.1E1,8.2E1,8.7E1,8.2E1],"tree_param":{"num_deleted":"0","num_feature":"17","num_nodes":"15","size_leaf_vector":"1"}},{"base_weights":[-2.6119798E-2,-8.383778E-1,6.341115E-1,-1.311189E0,-2.5294122E-1,1.6124792E-1,1.0767215E0,-9.2386186E-2,-4.1670512E-2,-3.8190037E-2,1.1711065E-2,-1.4494585E-2,3.21824E-2,2.8276188E-2,7.1846396E-2],"categories":[],"categories_nodes":[],"categories_segments":[],"categories_sizes":[],"default_left":[0,0,0,0,0,0,0,0,0,0,0,0,0,0,0],"id":9,"left_children":[1,3,5,7,9,11,13,-1,-1,-1,-1,-1,-1,-1,-1],"loss_changes":[2.7510605E2,6.3332565E1,5.9056625E1,3.101587E1,2.6061546E1,3.0219498E1,2.6071335E1,0E0,0E0,0E0,0E0,0E0,0E0,0E0,0E0],"parents":[2147483647,0,0,1,1,2,2,3,3,4,4,5,5,6,6],"right_children":[2,4,6,8,10,12,14,-1,-1,-1,-1,-1,-1,-1,-1],"split_conditions":[5.0896616E2,1E0,1E0,2.8322238E2,2.9068976E2,7.743957E2,6.707169E2,-9.2386186E-2,-4.1670512E-2,-3.8190037E-2,1.1711065E-2,-1.4494585E-2,3.21824E-2,2.8276188E-2,7.1846396E-2],"split_indices":[0,3,2,0,0,0,0,0,0,0,0,0,0,0,0],"split_type":[0,0,0,0,0,0,0,0,0,0,0,0,0,0,0],"sum_hessian":[5.11E2,2.29E2,2.82E2,1.26E2,1.03E2,1.37E2,1.45E2,5.8E1,6.8E1,5E1,5.3E1,7.1E1,6.6E1,6.1E1,8.4E1],"tree_param":{"num_deleted":"0","num_feature":"17","num_nodes":"15","size_leaf_vector":"1"}},{"base_weights":[2.653145E-2,-6.4286184E-1,7.791563E-1,-1.253098E0,-2.4063195E-1,2.9387933E-1,1.2430139E0,-8.635518E-2,-3.6038775E-2,-3.3426803E-2,9.2547275E-3,-1.0225671E-2,3.7087273E-2,3.710968E-2,7.846625E-2],"categories":[],"categories_nodes":[],"categories_segments":[],"categories_sizes":[],"default_left":[0,0,0,0,0,0,0,0,0,0,0,0,0,0,0],"id":10,"left_children":[1,3,5,7,9,11,13,-1,-1,-1,-1,-1,-1,-1,-1],"loss_changes":[2.6650836E2,6.842593E1,5.5684464E1,2.6763092E1,3.1092659E1,2.7606922E1,1.9589996E1,0E0,0E0,0E0,0E0,0E0,0E0,0E0,0E0],"parents":[2147483647,0,0,1,1,2,2,3,3,4,4,5,5,6,6],"right_children":[2,4,6,8,10,12,14,-1,-1,-1,-1,-1,-1,-1,-1],"split_conditions":[5.855528E2,2.8322238E2,1E0,1E0,1E0,1E0,7.163337E2,-8.635518E-2,-3.6038775E-2,-3.3426803E-2,9.2547275E-3,-1.0225671E-2,3.7087273E-2,3.710968E-2,7.846625E-2],"split_indices":[0,0,2,3,2,3,0,0,0,0,0,0,0,0,0],"split_type":[0,0,0,0,0,0,0,0,0,0,0,0,0,0,0],"sum_hessian":[5.27E2,2.79E2,2.48E2,1.1E2,1.69E2,1.22E2,1.26E2,5.7E1,5.3E1,8.4E1,8.5E1,5.8E1,6.4E1,5.1E1,7.5E1],"tree_param":{"num_deleted":"0","num_feature":"17","num_nodes":"15","size_leaf_vector":"1"}},{"base_weights":[-7.446999E-3,-8.349437E-1,6.0880035E-1,-1.2490803E0,-3.0050227E-1,1.4890267E-1,1.0422975E0,-7.9365715E-2,-4.0215783E-2,-3.5239376E-2,4.6599093E-3,-1.7115846E-2,3.29802E-2,2.7643466E-2,6.765155E-2],"categories":[],"categories_nodes":[],"categories_segments":[],"categories_sizes":[],"default_left":[0,0,0,0,0,0,0,0,0,0,0,0,0,0,0],"id":11,"left_children":[1,3,5,7,9,11,13,-1,-1,-1,-1,-1,-1,-1,-1],"loss_changes":[2.5089017E2,4.610431E1,5.6065536E1,1.6474579E1,1.4868241E1,3.4845367E1,2.1303787E1,0E0,0E0,0E0,0E0,0E0,0E0,0E0,0E0],"parents":[2147483647,0,0,1,1,2,2,3,3,4,4,5,5,6,6],"right_children":[2,4,6,8,10,12,14,-1,-1,-1,-1,-1,-1,-1,-1],"split_conditions":[4.9263806E2,1E0,1E0,1E0,1E0,1E0,6.557367E2,-7.9365715E-2,-4.0215783E-2,-3.5239376E-2,4.6599093E-3,-1.7115846E-2,3.29802E-2,2.7643466E-2,6.765155E-2],"split_indices":[0,2,3,3,3,2,0,0,0,0,0,0,0,0,0],"split_type":[0,0,0,0,0,0,0,0,0,0,0,0,0,0,0],"sum_hessian":[4.9E2,2.09E2,2.81E2,1.17E2,9.2E1,1.37E2,1.44E2,6.5E1,5.2E1,4.5E1,4.7E1,7E1,6.7E1,5.7E1,8.7E1],"tree_param":{"num_deleted":"0","num_feature":"17","num_nodes":"15","size_leaf_vector":"1"}},{"base_weights":[-2.2725673E-2,-5.953311E-1,7.574878E-1,-1.188268E0,-2.502229E-1,3.5712147E-1,1.1263492E0,-8.3211005E-2,-3.5404757E-2,-3.0987198E-2,7.7266614E-3,-3.359188E-3,3.6152687E-2,3.219482E-2,7.067573E-2],"categories":[],"categories_nodes":[],"categories_segments":[],"categories_sizes":[],"default_left":[0,0,0,0,0,0,0,0,0,0,0,0,0,0,0],"id":12,"left_children":[1,3,5,7,9,11,13,-1,-1,-1,-1,-1,-1,-1,-1],"loss_changes":[2.3008275E2,6.0477013E1,3.1791924E1,2.3732346E1,2.8363724E1,1.6506878E1,1.4745285E1,0E0,0E0,0E0,0E0,0E0,0E0,0E0,0E0],"parents":[2147483647,0,0,1,1,2,2,3,3,4,4,5,5,6,6],"right_children":[2,4,6,8,10,12,14,-1,-1,-1,-1,-1,-1,-1,-1],"split_conditions":[6.099458E2,2.8322238E2,1E0,1E0,1E0,1E0,7.406804E2,-8.3211005E-2,-3.5404757E-2,-3.0987198E-2,7.7266614E-3,-3.359188E-3,3.6152687E-2,3.219482E-2,7.067573E-2],"split_indices":[0,0,2,3,2,3,0,0,0,0,0,0,0,0,0],"split_type":[0,0,0,0,0,0,0,0,0,0,0,0,0,0,0],"sum_hessian":[5.13E2,2.96E2,2.17E2,1.08E2,1.88E2,1.05E2,1.12E2,5.3E1,5.5E1,9.8E1,9E1,4.9E1,5.6E1,4.3E1,6.9E1],"tree_param":{"num_deleted":"0","num_feature":"17","num_nodes":"15","size_leaf_vector":"1"}},{"base_weights":[4.4162806E-2,-7.2971594E-1,4.9867857E-1,-1.1463602E0,-2.4322979E-1,9.126909E-2,8.6215526E-1,-7.7408545E-2,-3.7662264E-2,-2.931687E-2,4.8829145E-3,-1.9053474E-2,2.9064214E-2,2.4864702E-2,6.0843673E-2],"categories":[],"categories_nodes":[],"categories_segments":[],"categories_sizes":[],"default_left":[0,0,0,0,0,0,0,0,0,0,0,0,0,0,0],"id":13,"left_children":[1,3,5,7,9,11,13,-1,-1,-1,-1,-1,-1,-1,-1],"loss_changes":[1.786961E2,3.7827187E1,4.7308144E1,1.4787582E1,1.0349854E1,3.540238E1,2.1267319E1,0E0,0E0,0E0,0E0,0E0,0E0,0E0,0E0],"parents":[2147483647,0,0,1,1,2,2,3,3,4,4,5,5,6,6],"right_children":[2,4,6,8,10,12,14,-1,-1,-1,-1,-1,-1,-1,-1],"split_conditions":[4.5112347E2,1E0,1E0,1E0,1E0,7.235176E2,1E0,-7.7408545E-2,-3.7662264E-2,-2.931687E-2,4.8829145E-3,-1.9053474E-2,2.9064214E-2,2.4864702E-2,6.0843673E-2],"split_indices":[0,2,3,3,3,0,2,0,0,0,0,0,0,0,0],"split_type":[0,0,0,0,0,0,0,0,0,0,0,0,0,0,0],"sum_hessian":[5.06E2,1.87E2,3.19E2,1E2,8.7E1,1.51E2,1.68E2,4.8E1,5.2E1,4.3E1,4.4E1,7.7E1,7.4E1,8.4E1,8.4E1],"tree_param":{"num_deleted":"0","num_feature":"17","num_nodes":"15","size_leaf_vector":"1"}},{"base_weights":[-6.742901E-2,-6.2082875E-1,5.888311E-1,-1.0159326E0,-1.4553979E-1,1.6763407E-1,9.543283E-1,-7.883216E-2,-3.2765906E-2,-2.4535093E-2,9.296539E-3,-1.0950007E-2,2.9014265E-2,3.0031571E-2,6.3306786E-2],"categories":[],"categories_nodes":[],"categories_segments":[],"categories_sizes":[],"default_left":[0,0,0,0,0,0,0,0,0,0,0,0,0,0,0],"id":14,"left_children":[1,3,5,7,9,11,13,-1,-1,-1,-1,-1,-1,-1,-1],"loss_changes":[1.841317E2,5.1493988E1,3.5555565E1,2.9296844E1,1.45070305E1,1.7517496E1,1.2914894E1,0E0,0E0,0E0,0E0,0E0,0E0,0E0,0E0],"parents":[2147483647,0,0,1,1,2,2,3,3,4,4,5,5,6,6],"right_children":[2,4,6,8,10,12,14,-1,-1,-1,-1,-1,-1,-1,-1],"split_conditions":[5.770727E2,1E0,1E0,2.6295026E2,1E0,7.881588E2,1E0,-7.883216E-2,-3.2765906E-2,-2.4535093E-2,9.296539E-3,-1.0950007E-2,2.9014265E-2,3.0031571E-2,6.3306786E-2],"split_indices":[0,2,3,0,3,0,2,0,0,0,0,0,0,0,0],"split_type":[0,0,0,0,0,0,0,0,0,0,0,0,0,0,0],"sum_hessian":[5.05E2,2.74E2,2.31E2,1.49E2,1.25E2,1.08E2,1.23E2,5.7E1,9.2E1,6.1E1,6.4E1,5.6E1,5.2E1,5.9E1,6.4E1],"tree_param":{"num_deleted":"0","num_feature":"17","num_nodes":"15","size_leaf_vector":"1"}},{"base_weights":[5.955926E-3,-7.8563297E-1,4.180303E-1,-1.1749527E0,-3.3056056E-1,2.9090049E-2,8.452048E-1,-7.543739E-2,-3.5890628E-2,-3.6468312E-2,-4.5529935E-3,-1.6349211E-2,2.2714375E-2,2.4157483E-2,5.7208497E-2],"categories":[],"categories_nodes":[],"categories_segments":[],"categories_sizes":[],"default_left":[0,0,0,0,0,0,0,0,0,0,0,0,0,0,0],"id":15,"left_children":[1,3,5,7,9,11,13,-1,-1,-1,-1,-1,-1,-1,-1],"loss_changes":[1.6864426E2,3.0970467E1,5.6464832E1,1.3413162E1,7.861264E0,2.7249477E1,1.6982384E1,0E0,0E0,0E0,0E0,0E0,0E0,0E0,0E0],"parents":[2147483647,0,0,1,1,2,2,3,3,4,4,5,5,6,6],"right_children":[2,4,6,8,10,12,14,-1,-1,-1,-1,-1,-1,-1,-1],"split_conditions":[4.155984E2,1E0,1E0,1E0,2.2687526E2,7.235176E2,1E0,-7.543739E-2,-3.5890628E-2,-3.6468312E-2,-4.5529935E-3,-1.6349211E-2,2.2714375E-2,2.4157483E-2,5.7208497E-2],"split_indices":[0,2,3,3,0,0,2,0,0,0,0,0,0,0,0],"split_type":[0,0,0,0,0,0,0,0,0,0,0,0,0,0,0],"sum_hessian":[5.15E2,1.76E2,3.39E2,9.4E1,8.2E1,1.78E2,1.61E2,5.3E1,4.1E1,3E1,5.2E1,9.7E1,8.1E1,7.4E1,8.7E1],"tree_param":{"num_deleted":"0","num_feature":"17","num_nodes":"15","size_leaf_vector":"1"}},{"base_weights":[2.4755742E-2,-6.164138E-1,4.7415033E-1,-9.6508473E-1,-2.0620096E-1,1.0899199E-1,8.1667256E-1,-6.36536E-2,-2.370852E-2,-2.6426187E-2,4.112233E-3,-1.3450736E-2,2.2513242E-2,2.031619E-2,5.319038E-2],"categories":[],"categories_nodes":[],"categories_segments":[],"categories_sizes":[],"default_left":[0,0,0,0,0,0,0,0,0,0,0,0,0,0,0],"id":16,"left_children":[1,3,5,7,9,11,13,-1,-1,-1,-1,-1,-1,-1,-1],"loss_changes":[1.4263249E2,2.8978981E1,3.6307777E1,1.6027832E1,8.875865E0,1.8439613E1,1.4779472E1,0E0,0E0,0E0,0E0,0E0,0E0,0E0,0E0],"parents":[2147483647,0,0,1,1,2,2,3,3,4,4,5,5,6,6],"right_children":[2,4,6,8,10,12,14,-1,-1,-1,-1,-1,-1,-1,-1],"split_conditions":[4.9263806E2,1E0,1E0,3.5290738E2,1E0,1E0,6.557367E2,-6.36536E-2,-2.370852E-2,-2.6426187E-2,4.112233E-3,-1.3450736E-2,2.2513242E-2,2.031619E-2,5.319038E-2],"split_indices":[0,2,3,0,3,2,0,0,0,0,0,0,0,0,0],"split_type":[0,0,0,0,0,0,0,0,0,0,0,0,0,0,0],"sum_hessian":[4.93E2,2.03E2,2.9E2,1.09E2,9.4E1,1.41E2,1.49E2,6.6E1,4.3E1,4.4E1,5E1,6.7E1,7.4E1,5.7E1,9.2E1],"tree_param":{"num_deleted":"0","num_feature":"17","num_nodes":"15","size_leaf_vector":"1"}},{"base_weights":[-2.220269E-2,-6.981441E-1,3.4921634E-1,-1.1326897E0,-2.4085085E-1,-3.186479E-2,6.9461846E-1,-7.0864394E-2,-3.2925908E-2,-3.0761672E-2,4.1976E-3,-1.5138717E-2,1.7903281E-2,1.623112E-2,5.1784933E-2],"categories":[],"categories_nodes":[],"categories_segments":[],"categories_sizes":[],"default_left":[0,0,0,0,0,0,0,0,0,0,0,0,0,0,0],"id":17,"left_children":[1,3,5,7,9,11,13,-1,-1,-1,-1,-1,-1,-1,-1],"loss_changes":[1.2602361E2,3.5098427E1,4.266903E1,1.1346985E1,1.0752497E1,1.6481974E1,2.1117508E1,0E0,0E0,0E0,0E0,0E0,0E0,0E0,0E0],"parents":[2147483647,0,0,1,1,2,2,3,3,4,4,5,5,6,6],"right_children":[2,4,6,8,10,12,14,-1,-1,-1,-1,-1,-1,-1,-1],"split_conditions":[4.177845E2,1E0,1E0,1E0,1E0,7.3494366E2,1E0,-7.0864394E-2,-3.2925908E-2,-3.0761672E-2,4.1976E-3,-1.5138717E-2,1.7903281E-2,1.623112E-2,5.1784933E-2],"split_indices":[0,3,3,2,2,0,2,0,0,0,0,0,0,0,0],"split_type":[0,0,0,0,0,0,0,0,0,0,0,0,0,0,0],"sum_hessian":[5E2,1.77E2,3.23E2,9E1,8.7E1,1.54E2,1.69E2,5.5E1,3.5E1,4E1,4.7E1,9.1E1,6.3E1,8.2E1,8.7E1],"tree_param":{"num_deleted":"0","num_feature":"17","num_nodes":"15","size_leaf_vector":"1"}},{"base_weights":[3.6511773E-3,-3.7673077E-1,6.2730455E-1,-8.837133E-1,-1.0343333E-1,2.4793586E-1,9.854378E-1,-6.1404612E-2,-2.4911059E-2,-2.2649728E-2,1.1391746E-2,5.3997285E-4,3.3384874E-2,3.961155E-2,7.8615E-2],"categories":[],"categories_nodes":[],"categories_segments":[],"categories_sizes":[],"default_left":[0,0,0,0,0,0,0,0,0,0,0,0,0,0,0],"id":18,"left_children":[1,3,5,7,9,11,13,-1,-1,-1,-1,-1,-1,-1,-1],"loss_changes":[1.2335686E2,4.4662514E1,2.6520996E1,1.4389488E1,2.4536697E1,9.648243E0,1.0206337E1,0E0,0E0,0E0,0E0,0E0,0E0,0E0,0E0],"parents":[2147483647,0,0,1,1,2,2,3,3,4,4,5,5,6,6],"right_children":[2,4,6,8,10,12,14,-1,-1,-1,-1,-1,-1,-1,-1],"split_conditions":[6.3872424E2,2.9068976E2,1E0,1E0,1E0,8.789646E2,8.789646E2,-6.1404612E-2,-2.4911059E-2,-2.2649728E-2,1.1391746E-2,5.3997285E-4,3.3384874E-2,3.961155E-2,7.8615E-2],"split_indices":[0,0,2,3,2,0,0,0,0,0,0,0,0,0,0],"split_type":[0,0,0,0,0,0,0,0,0,0,0,0,0,0,0],"sum_hessian":[5.18E2,3.22E2,1.96E2,1.12E2,2.1E2,9.6E1,1E2,5.8E1,5.4E1,1.02E2,1.08E2,6.2E1,3.4E1,7.7E1,2.3E1],"tree_param":{"num_deleted":"0","num_feature":"17","num_nodes":"15","size_leaf_vector":"1"}},{"base_weights":[2.7845008E-2,-4.1480696E-1,5.693891E-1,-7.8964E-1,-5.280043E-2,2.2360387E-1,8.575993E-1,-6.4194605E-2,-2.5432572E-2,-2.41852E-2,1.2345925E-2,-5.1125134E-3,2.4990061E-2,2.6472894E-2,5.7847958E-2],"categories":[],"categories_nodes":[],"categories_segments":[],"categories_sizes":[],"default_left":[0,0,0,0,0,0,0,0,0,0,0,0,0,0,0],"id":19,"left_children":[1,3,5,7,9,11,13,-1,-1,-1,-1,-1,-1,-1,-1],"loss_changes":[1.2153227E2,3.7816376E1,2.2530441E1,1.8373398E1,1.8587877E1,9.50111E0,1.1568253E1,0E0,0E0,0E0,0E0,0E0,0E0,0E0,0E0],"parents":[2147483647,0,0,1,1,2,2,3,3,4,4,5,5,6,6],"right_children":[2,4,6,8,10,12,14,-1,-1,-1,-1,-1,-1,-1,-1],"split_conditions":[6.0458514E2,1E0,1E0,2.6295026E2,2.9068976E2,1E0,1E0,-6.4194605E-2,-2.5432572E-2,-2.41852E-2,1.2345925E-2,-5.1125134E-3,2.4990061E-2,2.6472894E-2,5.7847958E-2],"split_indices":[0,3,3,0,0,2,2,0,0,0,0,0,0,0,0],"split_type":[0,0,0,0,0,0,0,0,0,0,0,0,0,0,0],"sum_hessian":[5.05E2,2.78E2,2.27E2,1.36E2,1.42E2,1.04E2,1.23E2,4.8E1,8.8E1,5.8E1,8.4E1,4.8E1,5.6E1,6E1,6.3E1],"tree_param":{"num_deleted":"0","num_feature":"17","num_nodes":"15","size_leaf_vector":"1"}},{"base_weights":[-1.9729199E-2,-6.4367044E-1,3.164407E-1,-9.2189294E-1,-2.644549E-1,-1.704181E-2,6.197035E-1,-6.335656E-2,-2.7614338E-2,-2.4148216E-2,-2.7741925E-3,-1.3084756E-2,2.909703E-2,1.4343348E-2,4.8234254E-2],"categories":[],"categories_nodes":[],"categories_segments":[],"categories_sizes":[],"default_left":[0,0,0,0,0,0,0,0,0,0,0,0,0,0,0],"id":20,"left_children":[1,3,5,7,9,11,13,-1,-1,-1,-1,-1,-1,-1,-1],"loss_changes":[1.08434814E2,1.8852837E1,3.399119E1,1.2570808E1,3.5348506E0,2.3745718E1,1.9932022E1,0E0,0E0,0E0,0E0,0E0,0E0,0E0,0E0],"parents":[2147483647,0,0,1,1,2,2,3,3,4,4,5,5,6,6],"right_children":[2,4,6,8,10,12,14,-1,-1,-1,-1,-1,-1,-1,-1],"split_conditions":[4.177845E2,1E0,1E0,1E0,1E0,8.640414E2,6.707169E2,-6.335656E-2,-2.7614338E-2,-2.4148216E-2,-2.7741925E-3,-1.3084756E-2,2.909703E-2,1.4343348E-2,4.8234254E-2],"split_indices":[0,2,2,3,3,0,0,0,0,0,0,0,0,0,0],"split_type":[0,0,0,0,0,0,0,0,0,0,0,0,0,0,0],"sum_hessian":[5.15E2,1.8E2,3.35E2,1.03E2,7.7E1,1.6E2,1.75E2,5.2E1,5.1E1,3.7E1,4E1,1.14E2,4.6E1,9E1,8.5E1],"tree_param":{"num_deleted":"0","num_feature":"17","num_nodes":"15","size_leaf_vector":"1"}},{"base_weights":[1.1483035E-2,-3.8657728E-1,5.493507E-1,-9.962385E-1,-1.8254556E-1,2.1987103E-1,8.5399806E-1,-6.51921E-2,-2.7107565E-2,-2.3687502E-2,4.884034E-3,-5.126416E-3,2.550662E-2,2.5911096E-2,5.932867E-2],"categories":[],"categories_nodes":[],"categories_segments":[],"categories_sizes":[],"default_left":[0,0,0,0,0,0,0,0,0,0,0,0,0,0,0],"id":21,"left_children":[1,3,5,7,9,11,13,-1,-1,-1,-1,-1,-1,-1,-1],"loss_changes":[1.1176043E2,3.7135212E1,2.2095497E1,9.769028E0,1.8488586E1,1.0158949E1,1.22272415E1,0E0,0E0,0E0,0E0,0E0,0E0,0E0,0E0],"parents":[2147483647,0,0,1,1,2,2,3,3,4,4,5,5,6,6],"right_children":[2,4,6,8,10,12,14,-1,-1,-1,-1,-1,-1,-1,-1],"split_conditions":[6.2347046E2,2.3561838E2,1E0,1E0,1E0,1E0,1E0,-6.51921E-2,-2.7107565E-2,-2.3687502E-2,4.884034E-3,-5.126416E-3,2.550662E-2,2.5911096E-2,5.932867E-2],"split_indices":[0,0,2,2,2,3,3,0,0,0,0,0,0,0,0],"split_type":[0,0,0,0,0,0,0,0,0,0,0,0,0,0,0],"sum_hessian":[5.2E2,2.99E2,2.21E2,7.4E1,2.25E2,1.07E2,1.14E2,4.3E1,3.1E1,1.1E2,1.15E2,5.1E1,5.6E1,5.8E1,5.6E1],"tree_param":{"num_deleted":"0","num_feature":"17","num_nodes":"15","size_leaf_vector":"1"}},{"base_weights":[-6.0145883E-3,-4.058311E-1,4.4401327E-1,-8.846409E-1,-1.9482987E-1,1.514972E-1,6.840151E-1,-5.9707273E-2,-2.1745102E-2,-2.304723E-2,3.8094253E-3,-2.7048716E-3,2.5375018E-2,2.5664855E-2,5.0495263E-2],"categories":[],"categories_nodes":[],"categories_segments":[],"categories_sizes":[],"default_left":[0,0,0,0,0,0,0,0,0,0,0,0,0,0,0],"id":22,"left_children":[1,3,5,7,9,11,13,-1,-1,-1,-1,-1,-1,-1,-1],"loss_changes":[9.140398E1,2.7004566E1,1.6675217E1,1.089476E1,1.3594049E1,8.005419E0,6.769848E0,0E0,0E0,0E0,0E0,0E0,0E0,0E0,0E0],"parents":[2147483647,0,0,1,1,2,2,3,3,4,4,5,5,6,6],"right_children":[2,4,6,8,10,12,14,-1,-1,-1,-1,-1,-1,-1,-1],"split_conditions":[5.883827E2,2.3561838E2,1E0,1E0,1E0,8.512003E2,8.479197E2,-5.9707273E-2,-2.1745102E-2,-2.304723E-2,3.8094253E-3,-2.7048716E-3,2.5375018E-2,2.5664855E-2,5.0495263E-2],"split_indices":[0,0,3,2,3,0,0,0,0,0,0,0,0,0,0],"split_type":[0,0,0,0,0,0,0,0,0,0,0,0,0,0,0],"sum_hessian":[5.06E2,2.68E2,2.38E2,8.1E1,1.87E2,1.08E2,1.3E2,4.7E1,3.4E1,9.4E1,9.3E1,6.9E1,3.9E1,8.7E1,4.3E1],"tree_param":{"num_deleted":"0","num_feature":"17","num_nodes":"15","size_leaf_vector":"1"}},{"base_weights":[7.674114E-3,-2.6567566E-1,6.277885E-1,-5.8545554E-1,5.9105475E-2,3.7125328E-1,8.734061E-1,-6.445642E-2,-2.2228738E-2,-1.2159677E-2,1.588079E-2,2.9388643E-3,3.3352647E-2,2.806803E-2,5.9753068E-2],"categories":[],"categories_nodes":[],"categories_segments":[],"categories_sizes":[],"default_left":[0,0,0,0,0,0,0,0,0,0,0,0,0,0,0],"id":23,"left_children":[1,3,5,7,9,11,13,-1,-1,-1,-1,-1,-1,-1,-1],"loss_changes":[8.865003E1,3.773523E1,9.757282E0,1.7568398E1,1.4221923E1,7.355215E0,7.4591904E0,0E0,0E0,0E0,0E0,0E0,0E0,0E0,0E0],"parents":[2147483647,0,0,1,1,2,2,3,3,4,4,5,5,6,6],"right_children":[2,4,6,8,10,12,14,-1,-1,-1,-1,-1,-1,-1,-1],"split_conditions":[7.235176E2,1E0,1E0,1.7927951E2,1E0,8.789646E2,1E0,-6.445642E-2,-2.2228738E-2,-1.2159677E-2,1.588079E-2,2.9388643E-3,3.3352647E-2,2.806803E-2,5.9753068E-2],"split_indices":[0,2,2,0,3,0,3,0,0,0,0,0,0,0,0],"split_type":[0,0,0,0,0,0,0,0,0,0,0,0,0,0,0],"sum_hessian":[5.21E2,3.62E2,1.59E2,1.82E2,1.8E2,7.9E1,8E1,2.9E1,1.53E2,8.3E1,9.7E1,3.9E1,4E1,4.2E1,3.8E1],"tree_param":{"num_deleted":"0","num_feature":"17","num_nodes":"15","size_leaf_vector":"1"}},{"base_weights":[6.4793252E-3,-5.0664467E-1,3.2816684E-1,-7.768799E-1,-1.8096764E-1,3.379701E-2,5.8924186E-1,-5.3016316E-2,-2.1686915E-2,-2.577546E-2,-1.2518755E-4,-1.4348897E-2,1.5727645E-2,2.103156E-2,4.9106132E-2],"categories":[],"categories_nodes":[],"categories_segments":[],"categories_sizes":[],"default_left":[0,0,0,0,0,0,0,0,0,0,0,0,0,0,0],"id":24,"left_children":[1,3,5,7,9,11,13,-1,-1,-1,-1,-1,-1,-1,-1],"loss_changes":[8.567024E1,1.7461292E1,2.4496067E1,1.0141678E1,5.491439E0,1.3689247E1,1.07821045E1,0E0,0E0,0E0,0E0,0E0,0E0,0E0,0E0],"parents":[2147483647,0,0,1,1,2,2,3,3,4,4,5,5,6,6],"right_children":[2,4,6,8,10,12,14,-1,-1,-1,-1,-1,-1,-1,-1],"split_conditions":[4.3838098E2,1E0,1E0,1E0,2.152967E2,1E0,8.479197E2,-5.3016316E-2,-2.1686915E-2,-2.577546E-2,-1.2518755E-4,-1.4348897E-2,1.5727645E-2,2.103156E-2,4.9106132E-2],"split_indices":[0,2,3,3,0,2,0,0,0,0,0,0,0,0,0],"split_type":[0,0,0,0,0,0,0,0,0,0,0,0,0,0,0],"sum_hessian":[5.17E2,1.99E2,3.18E2,1.08E2,9.1E1,1.5E2,1.68E2,5.8E1,5E1,3.1E1,6E1,7E1,8E1,1.19E2,4.9E1],"tree_param":{"num_deleted":"0","num_feature":"17","num_nodes":"15","size_leaf_vector":"1"}},{"base_weights":[1.360978E-2,-3.116251E-1,4.7946435E-1,-5.8371323E-1,-1.735847E-2,2.1716028E-1,7.4219036E-1,-5.1623095E-2,-1.9396437E-2,-1.3933919E-2,1.0273084E-2,-7.992154E-4,2.94731E-2,2.327655E-2,4.9291745E-2],"categories":[],"categories_nodes":[],"categories_segments":[],"categories_sizes":[],"default_left":[0,0,0,0,0,0,0,0,0,0,0,0,0,0,0],"id":25,"left_children":[1,3,5,7,9,11,13,-1,-1,-1,-1,-1,-1,-1,-1],"loss_changes":[7.923876E1,2.465034E1,1.4655361E1,1.3656761E1,8.73313E0,9.470635E0,6.753563E0,0E0,0E0,0E0,0E0,0E0,0E0,0E0,0E0],"parents":[2147483647,0,0,1,1,2,2,3,3,4,4,5,5,6,6],"right_children":[2,4,6,8,10,12,14,-1,-1,-1,-1,-1,-1,-1,-1],"split_conditions":[6.2471405E2,1E0,1E0,2.3561838E2,1E0,8.789646E2,1E0,-5.1623095E-2,-1.9396437E-2,-1.3933919E-2,1.0273084E-2,-7.992154E-4,2.94731E-2,2.327655E-2,4.9291745E-2],"split_indices":[0,2,2,0,3,0,3,0,0,0,0,0,0,0,0],"split_type":[0,0,0,0,0,0,0,0,0,0,0,0,0,0,0],"sum_hessian":[5.21E2,3.07E2,2.14E2,1.59E2,1.48E2,1.08E2,1.06E2,4.7E1,1.12E2,6.8E1,8E1,6.7E1,4.1E1,5.1E1,5.5E1],"tree_param":{"num_deleted":"0","num_feature":"17","num_nodes":"15","size_leaf_vector":"1"}},{"base_weights":[4.0517905E-4,-2.5975958E-1,4.739612E-1,-5.5766875E-1,1.3391509E-2,1.8380485E-1,7.431964E-1,-4.1260924E-2,-9.218931E-3,-1.993056E-2,8.021452E-3,-4.007037E-3,2.159675E-2,2.3799269E-2,5.0003E-2],"categories":[],"categories_nodes":[],"categories_segments":[],"categories_sizes":[],"default_left":[0,0,0,0,0,0,0,0,0,0,0,0,0,0,0],"id":26,"left_children":[1,3,5,7,9,11,13,-1,-1,-1,-1,-1,-1,-1,-1],"loss_changes":[6.1847603E1,2.6372713E1,1.376881E1,1.5328266E1,1.0362526E1,5.732494E0,5.8385773E0,0E0,0E0,0E0,0E0,0E0,0E0,0E0,0E0],"parents":[2147483647,0,0,1,1,2,2,3,3,4,4,5,5,6,6],"right_children":[2,4,6,8,10,12,14,-1,-1,-1,-1,-1,-1,-1,-1],"split_conditions":[6.5746814E2,1E0,1E0,1E0,2.6295026E2,1E0,1E0,-4.1260924E-2,-9.218931E-3,-1.993056E-2,8.021452E-3,-4.007037E-3,2.159675E-2,2.3799269E-2,5.0003E-2],"split_indices":[0,2,3,3,0,2,2,0,0,0,0,0,0,0,0],"split_type":[0,0,0,0,0,0,0,0,0,0,0,0,0,0,0],"sum_hessian":[5E2,3.23E2,1.77E2,1.54E2,1.69E2,8.6E1,9.1E1,8.9E1,6.5E1,4.4E1,1.25E2,4.2E1,4.4E1,4.6E1,4.5E1],"tree_param":{"num_deleted":"0","num_feature":"17","num_nodes":"15","size_leaf_vector":"1"}},{"base_weights":[5.722526E-3,-2.964375E-1,3.6829072E-1,-5.307004E-1,-4.84422E-2,1.23071596E-1,5.7483715E-1,-4.7326323E-2,-1.8125957E-2,-1.4774083E-2,6.645456E-3,-7.493816E-3,1.969109E-2,1.9747268E-2,4.711749E-2],"categories":[],"categories_nodes":[],"categories_segments":[],"categories_sizes":[],"default_left":[0,0,0,0,0,0,0,0,0,0,0,0,0,0,0],"id":27,"left_children":[1,3,5,7,9,11,13,-1,-1,-1,-1,-1,-1,-1,-1],"loss_changes":[5.7843933E1,1.6705961E1,1.2085049E1,1.0007122E1,6.356203E0,8.262002E0,8.222443E0,0E0,0E0,0E0,0E0,0E0,0E0,0E0,0E0],"parents":[2147483647,0,0,1,1,2,2,3,3,4,4,5,5,6,6],"right_children":[2,4,6,8,10,12,14,-1,-1,-1,-1,-1,-1,-1,-1],"split_conditions":[5.90006E2,1E0,1E0,2.5581364E2,2.9068976E2,1E0,8.479197E2,-4.7326323E-2,-1.8125957E-2,-1.4774083E-2,6.645456E-3,-7.493816E-3,1.969109E-2,1.9747268E-2,4.711749E-2],"split_indices":[0,3,2,0,0,3,0,0,0,0,0,0,0,0,0],"split_type":[0,0,0,0,0,0,0,0,0,0,0,0,0,0,0],"sum_hessian":[5.26E2,2.87E2,2.39E2,1.47E2,1.4E2,1.1E2,1.29E2,4.1E1,1.06E2,5.9E1,8.1E1,5.5E1,5.5E1,8.8E1,4.1E1],"tree_param":{"num_deleted":"0","num_feature":"17","num_nodes":"15","size_leaf_vector":"1"}},{"base_weights":[-5.4927953E-3,-3.746334E-1,3.0169535E-1,-6.016564E-1,-1.0766677E-1,2.259047E-2,5.3227144E-1,-4.0125526E-2,-1.6061785E-2,-1.8408623E-2,7.989278E-3,-6.8117823E-3,3.020581E-2,1.4797191E-2,4.1030925E-2],"categories":[],"categories_nodes":[],"categories_segments":[],"categories_sizes":[],"default_left":[0,0,0,0,0,0,0,0,0,0,0,0,0,0,0],"id":28,"left_children":[1,3,5,7,9,11,13,-1,-1,-1,-1,-1,-1,-1,-1],"loss_changes":[5.6924232E1,1.3753748E1,1.762122E1,6.6700134E0,7.4441504E0,1.1627485E1,9.978798E0,0E0,0E0,0E0,0E0,0E0,0E0,0E0,0E0],"parents":[2147483647,0,0,1,1,2,2,3,3,4,4,5,5,6,6],"right_children":[2,4,6,8,10,12,14,-1,-1,-1,-1,-1,-1,-1,-1],"split_conditions":[5.0896616E2,1E0,1E0,1E0,2.9068976E2,3.4227924E1,7.406804E2,-4.0125526E-2,-1.6061785E-2,-1.8408623E-2,7.989278E-3,-6.8117823E-3,3.020581E-2,1.4797191E-2,4.1030925E-2],"split_indices":[0,3,2,2,0,1,0,0,0,0,0,0,0,0,0],"split_type":[0,0,0,0,0,0,0,0,0,0,0,0,0,0,0],"sum_hessian":[5E2,2.27E2,2.73E2,1.22E2,1.05E2,1.24E2,1.49E2,7E1,5.2E1,5.3E1,5.2E1,9.8E1,2.6E1,8.3E1,6.6E1],"tree_param":{"num_deleted":"0","num_feature":"17","num_nodes":"15","size_leaf_vector":"1"}},{"base_weights":[1.2502276E-2,-3.685665E-1,2.5396785E-1,-6.0658836E-1,-8.514343E-2,-1.30533E-2,5.0780195E-1,-5.1773377E-2,-2.2176867E-2,-1.6482964E-2,6.342154E-3,-2.0740358E-2,7.315905E-3,1.7849965E-2,4.3852385E-2],"categories":[],"categories_nodes":[],"categories_segments":[],"categories_sizes":[],"default_left":[0,0,0,0,0,0,0,0,0,0,0,0,0,0,0],"id":29,"left_children":[1,3,5,7,9,11,13,-1,-1,-1,-1,-1,-1,-1,-1],"loss_changes":[4.720528E1,1.3373072E1,2.128926E1,7.0930824E0,4.8105483E0,9.921018E0,8.65189E0,0E0,0E0,0E0,0E0,0E0,0E0,0E0,0E0],"parents":[2147483647,0,0,1,1,2,2,3,3,4,4,5,5,6,6],"right_children":[2,4,6,8,10,12,14,-1,-1,-1,-1,-1,-1,-1,-1],"split_conditions":[4.3838098E2,1E0,1E0,1.8158786E2,1E0,2.225704E1,8.479197E2,-5.1773377E-2,-2.2176867E-2,-1.6482964E-2,6.342154E-3,-2.0740358E-2,7.315905E-3,1.7849965E-2,4.3852385E-2],"split_indices":[0,2,3,0,3,1,0,0,0,0,0,0,0,0,0],"split_type":[0,0,0,0,0,0,0,0,0,0,0,0,0,0,0],"sum_hessian":[5.11E2,1.98E2,3.13E2,1.07E2,9.1E1,1.53E2,1.6E2,2.8E1,7.9E1,4.2E1,4.9E1,4.3E1,1.1E2,1.15E2,4.5E1],"tree_param":{"num_deleted":"0","num_feature":"17","num_nodes":"15","size_leaf_vector":"1"}},{"base_weights":[5.836238E-3,-5.064637E-1,1.929566E-1,-7.662519E-1,-2.1630505E-1,2.2838514E-2,5.277827E-1,-4.870985E-2,-2.231931E-2,-2.0801907E-2,-8.0492254E-4,-1.2131065E-2,1.2321005E-2,1.5304394E-2,3.9066255E-2],"categories":[],"categories_nodes":[],"categories_segments":[],"categories_sizes":[],"default_left":[0,0,0,0,0,0,0,0,0,0,0,0,0,0,0],"id":30,"left_children":[1,3,5,7,9,11,13,-1,-1,-1,-1,-1,-1,-1,-1],"loss_changes":[5.0521004E1,1.0462807E1,2.1974495E1,4.4872055E0,2.7124782E0,1.53132305E1,7.06802E0,0E0,0E0,0E0,0E0,0E0,0E0,0E0,0E0],"parents":[2147483647,0,0,1,1,2,2,3,3,4,4,5,5,6,6],"right_children":[2,4,6,8,10,12,14,-1,-1,-1,-1,-1,-1,-1,-1],"split_conditions":[3.483354E2,1E0,7.733103E2,1E0,1E0,1E0,1E0,-4.870985E-2,-2.231931E-2,-2.0801907E-2,-8.0492254E-4,-1.2131065E-2,1.2321005E-2,1.5304394E-2,3.9066255E-2],"split_indices":[0,3,0,2,2,2,2,0,0,0,0,0,0,0,0],"split_type":[0,0,0,0,0,0,0,0,0,0,0,0,0,0,0],"sum_hessian":[5.25E2,1.4E2,3.85E2,7.3E1,6.7E1,2.56E2,1.29E2,4.3E1,3E1,3.3E1,3.4E1,1.17E2,1.39E2,7E1,5.9E1],"tree_param":{"num_deleted":"0","num_feature":"17","num_nodes":"15","size_leaf_vector":"1"}},{"base_weights":[3.3421735E-3,-2.2775291E-1,3.4560874E-1,-4.6966964E-1,2.1299021E-3,1.4130437E-1,5.233506E-1,-3.4889255E-2,-9.819222E-3,-1.2626344E-2,7.7201882E-3,-2.9748862E-3,2.2199748E-2,2.069891E-2,5.0561655E-2],"categories":[],"categories_nodes":[],"categories_segments":[],"categories_sizes":[],"default_left":[0,0,0,0,0,0,0,0,0,0,0,0,0,0,0],"id":31,"left_children":[1,3,5,7,9,11,13,-1,-1,-1,-1,-1,-1,-1,-1],"loss_changes":[4.1604176E1,1.7463327E1,7.6244984E0,9.401073E0,6.3209577E0,6.1045074E0,5.6111507E0,0E0,0E0,0E0,0E0,0E0,0E0,0E0,0E0],"parents":[2147483647,0,0,1,1,2,2,3,3,4,4,5,5,6,6],"right_children":[2,4,6,8,10,12,14,-1,-1,-1,-1,-1,-1,-1,-1],"split_conditions":[6.2471405E2,1E0,1E0,1E0,2.9068976E2,2.9558216E1,8.789646E2,-3.4889255E-2,-9.819222E-3,-1.2626344E-2,7.7201882E-3,-2.9748862E-3,2.2199748E-2,2.069891E-2,5.0561655E-2],"split_indices":[0,3,2,2,0,1,0,0,0,0,0,0,0,0,0],"split_type":[0,0,0,0,0,0,0,0,0,0,0,0,0,0,0],"sum_hessian":[5.24E2,3.13E2,2.11E2,1.52E2,1.61E2,9.9E1,1.12E2,8.2E1,7E1,6E1,1.01E2,6E1,3.9E1,9.3E1,1.9E1],"tree_param":{"num_deleted":"0","num_feature":"17","num_nodes":"15","size_leaf_vector":"1"}},{"base_weights":[7.446435E-3,-4.8479667E-1,1.7630792E-1,-7.6802725E-1,-2.0280343E-1,-3.6575735E-2,3.91664E-1,-4.8471346E-2,-2.1819416E-2,-2.1745859E-2,7.6046126E-4,-1.0274617E-2,1.5773484E-2,9.77221E-3,2.8021038E-2],"categories":[],"categories_nodes":[],"categories_segments":[],"categories_sizes":[],"default_left":[0,0,0,0,0,0,0,0,0,0,0,0,0,0,0],"id":32,"left_children":[1,3,5,7,9,11,13,-1,-1,-1,-1,-1,-1,-1,-1],"loss_changes":[4.197841E1,1.0147358E1,1.725234E1,3.8516426E0,3.346461E0,1.1363426E1,6.082678E0,0E0,0E0,0E0,0E0,0E0,0E0,0E0,0E0],"parents":[2147483647,0,0,1,1,2,2,3,3,4,4,5,5,6,6],"right_children":[2,4,6,8,10,12,14,-1,-1,-1,-1,-1,-1,-1,-1],"split_conditions":[3.4379935E2,1E0,1E0,1E0,1E0,7.881588E2,1E0,-4.8471346E-2,-2.1819416E-2,-2.1745859E-2,7.6046126E-4,-1.0274617E-2,1.5773484E-2,9.77221E-3,2.8021038E-2],"split_indices":[0,3,3,2,2,0,2,0,0,0,0,0,0,0,0],"split_type":[0,0,0,0,0,0,0,0,0,0,0,0,0,0,0],"sum_hessian":[5.03E2,1.28E2,3.75E2,6.3E1,6.5E1,1.89E2,1.86E2,3.8E1,2.5E1,3.1E1,3.4E1,1.28E2,6.1E1,8.7E1,9.9E1],"tree_param":{"num_deleted":"0","num_feature":"17","num_nodes":"15","size_leaf_vector":"1"}},{"base_weights":[-1.7943144E-2,-5.34375E-1,1.2283134E-1,-7.7307475E-1,-2.8187034E-1,-3.214452E-2,4.1663873E-1,-4.5419745E-2,-2.4892027E-2,-5.2767578E-3,-2.2721821E-2,-1.10362535E-2,8.939321E-3,1.05282515E-2,3.0426815E-2],"categories":[],"categories_nodes":[],"categories_segments":[],"categories_sizes":[],"default_left":[0,0,0,0,0,0,0,0,0,0,0,0,0,0,0],"id":33,"left_children":[1,3,5,7,9,11,13,-1,-1,-1,-1,-1,-1,-1,-1],"loss_changes":[3.8015263E1,6.5326443E0,1.8727478E1,1.6707153E0,1.6560917E0,1.077938E1,5.487259E0,0E0,0E0,0E0,0E0,0E0,0E0,0E0,0E0],"parents":[2147483647,0,0,1,1,2,2,3,3,4,4,5,5,6,6],"right_children":[2,4,6,8,10,12,14,-1,-1,-1,-1,-1,-1,-1,-1],"split_conditions":[2.9068976E2,1E0,7.406804E2,1E0,1.03E2,1E0,1E0,-4.5419745E-2,-2.4892027E-2,-5.2767578E-3,-2.2721821E-2,-1.10362535E-2,8.939321E-3,1.05282515E-2,3.0426815E-2],"split_indices":[0,3,0,2,4,3,3,0,0,0,0,0,0,0,0],"split_type":[0,0,0,0,0,0,0,0,0,0,0,0,0,0,0],"sum_hessian":[5.21E2,1.11E2,4.1E2,5.6E1,5.5E1,2.69E2,1.41E2,3.6E1,2E1,2.8E1,2.7E1,1.42E2,1.27E2,6.9E1,7.2E1],"tree_param":{"num_deleted":"0","num_feature":"17","num_nodes":"15","size_leaf_vector":"1"}},{"base_weights":[-1.9815927E-2,-4.567484E-1,1.3805136E-1,-6.997213E-1,-2.1772E-1,-6.2053576E-2,3.374141E-1,-4.350638E-2,-2.020456E-2,-1.9313235E-2,-1.1074048E-3,-7.982669E-3,1.7452354E-2,1.3251319E-2,4.4677727E-2],"categories":[],"categories_nodes":[],"categories_segments":[],"categories_sizes":[],"default_left":[0,0,0,0,0,0,0,0,0,0,0,0,0,0,0],"id":34,"left_children":[1,3,5,7,9,11,13,-1,-1,-1,-1,-1,-1,-1,-1],"loss_changes":[3.4827637E1,7.6300297E0,1.4821415E1,2.9732857E0,2.2658646E0,7.5186677E0,7.2511234E0,0E0,0E0,0E0,0E0,0E0,0E0,0E0,0E0],"parents":[2147483647,0,0,1,1,2,2,3,3,4,4,5,5,6,6],"right_children":[2,4,6,8,10,12,14,-1,-1,-1,-1,-1,-1,-1,-1],"split_conditions":[3.483354E2,1E0,1E0,1E0,1E0,8.951637E2,8.789646E2,-4.350638E-2,-2.020456E-2,-1.9313235E-2,-1.1074048E-3,-7.982669E-3,1.7452354E-2,1.3251319E-2,4.4677727E-2],"split_indices":[0,3,2,2,2,0,0,0,0,0,0,0,0,0,0],"split_type":[0,0,0,0,0,0,0,0,0,0,0,0,0,0,0],"sum_hessian":[5.03E2,1.33E2,3.7E2,6.5E1,6.8E1,1.85E2,1.85E2,4E1,2.5E1,3.6E1,3.2E1,1.5E2,3.5E1,1.65E2,2E1],"tree_param":{"num_deleted":"0","num_feature":"17","num_nodes":"15","size_leaf_vector":"1"}},{"base_weights":[1.2820683E-3,-1.4893211E-1,3.4291992E-1,-3.3541143E-1,4.443746E-2,1.9516008E-1,5.957843E-1,-3.8128965E-2,-1.2366552E-2,-8.995829E-3,8.572417E-3,-1.7238598E-4,2.2498555E-2,2.6751554E-2,4.6190064E-2],"categories":[],"categories_nodes":[],"categories_segments":[],"categories_sizes":[],"default_left":[0,0,0,0,0,0,0,0,0,0,0,0,0,0,0],"id":35,"left_children":[1,3,5,7,9,11,13,-1,-1,-1,-1,-1,-1,-1,-1],"loss_changes":[2.7557974E1,1.3465071E1,6.0112915E0,6.960161E0,5.2740006E0,5.3153343E0,7.0142174E-1,0E0,0E0,0E0,0E0,0E0,0E0,0E0,0E0],"parents":[2147483647,0,0,1,1,2,2,3,3,4,4,5,5,6,6],"right_children":[2,4,6,8,10,12,14,-1,-1,-1,-1,-1,-1,-1,-1],"split_conditions":[7.163337E2,1E0,3.058843E1,1.8158786E2,3.378053E2,1E0,9.3729004E2,-3.8128965E-2,-1.2366552E-2,-8.995829E-3,8.572417E-3,-1.7238598E-4,2.2498555E-2,2.6751554E-2,4.6190064E-2],"split_indices":[0,2,1,0,0,2,0,0,0,0,0,0,0,0,0],"split_type":[0,0,0,0,0,0,0,0,0,0,0,0,0,0,0],"sum_hessian":[5.35E2,3.72E2,1.63E2,1.89E2,1.83E2,1.04E2,5.9E1,3.1E1,1.58E2,6.6E1,1.17E2,5.9E1,4.5E1,5.2E1,7E0],"tree_param":{"num_deleted":"0","num_feature":"17","num_nodes":"15","size_leaf_vector":"1"}},{"base_weights":[1.1710274E-2,-1.582684E-1,3.3987767E-1,-3.5482156E-1,5.0036237E-2,9.8977044E-2,5.5851257E-1,-2.9155597E-2,-5.8548115E-3,-8.441759E-3,8.101244E-3,-7.838226E-3,1.4702457E-2,2.1818787E-2,4.5031995E-2],"categories":[],"categories_nodes":[],"categories_segments":[],"categories_sizes":[],"default_left":[0,0,0,0,0,0,0,0,0,0,0,0,0,0,0],"id":36,"left_children":[1,3,5,7,9,11,13,-1,-1,-1,-1,-1,-1,-1,-1],"loss_changes":[2.8446558E1,1.3774581E1,9.109175E0,9.320501E0,4.0471787E0,4.2366924E0,3.4095402E0,0E0,0E0,0E0,0E0,0E0,0E0,0E0,0E0],"parents":[2147483647,0,0,1,1,2,2,3,3,4,4,5,5,6,6],"right_children":[2,4,6,8,10,12,14,-1,-1,-1,-1,-1,-1,-1,-1],"split_conditions":[6.5746814E2,1E0,1E0,1E0,2.9068976E2,1E0,8.8820764E2,-2.9155597E-2,-5.8548115E-3,-8.441759E-3,8.101244E-3,-7.838226E-3,1.4702457E-2,2.1818787E-2,4.5031995E-2],"split_indices":[0,3,2,2,0,3,0,0,0,0,0,0,0,0,0],"split_type":[0,0,0,0,0,0,0,0,0,0,0,0,0,0,0],"sum_hessian":[5.08E2,3.35E2,1.73E2,1.72E2,1.63E2,8.3E1,9E1,8.7E1,8.5E1,5.5E1,1.08E2,3.6E1,4.7E1,6.8E1,2.2E1],"tree_param":{"num_deleted":"0","num_feature":"17","num_nodes":"15","size_leaf_vector":"1"}},{"base_weights":[6.3016116E-5,-3.0767348E-1,1.6351931E-1,-4.9848858E-1,-1.091134E-1,-4.4649858E-2,3.5878497E-1,-3.844254E-2,-1.862081E-2,-9.632375E-3,9.435579E-3,-1.9239118E-2,4.560252E-3,9.677368E-3,2.5368465E-2],"categories":[],"categories_nodes":[],"categories_segments":[],"categories_sizes":[],"default_left":[0,0,0,0,0,0,0,0,0,0,0,0,0,0,0],"id":37,"left_children":[1,3,5,7,9,11,13,-1,-1,-1,-1,-1,-1,-1,-1],"loss_changes":[2.5955564E1,6.7276077E0,1.3714494E1,2.8154202E0,2.2505445E0,7.6133156E0,4.1737995E0,0E0,0E0,0E0,0E0,0E0,0E0,0E0,0E0],"parents":[2147483647,0,0,1,1,2,2,3,3,4,4,5,5,6,6],"right_children":[2,4,6,8,10,12,14,-1,-1,-1,-1,-1,-1,-1,-1],"split_conditions":[4.177845E2,1E0,1E0,1.8158786E2,3.6230423E1,2.225704E1,1E0,-3.844254E-2,-1.862081E-2,-9.632375E-3,9.435579E-3,-1.9239118E-2,4.560252E-3,9.677368E-3,2.5368465E-2],"split_indices":[0,3,3,0,1,1,2,0,0,0,0,0,0,0,0],"split_type":[0,0,0,0,0,0,0,0,0,0,0,0,0,0,0],"sum_hessian":[5.14E2,1.78E2,3.36E2,9E1,8.8E1,1.63E2,1.73E2,2.7E1,6.3E1,6.9E1,1.9E1,4.6E1,1.17E2,8.3E1,9E1],"tree_param":{"num_deleted":"0","num_feature":"17","num_nodes":"15","size_leaf_vector":"1"}},{"base_weights":[2.8345583E-2,-1.4419046E-1,3.1906945E-1,-3.3521247E-1,5.1314425E-2,1.56525E-1,4.8513633E-1,-2.5570262E-2,-6.083045E-3,-1.6071761E-2,5.9728636E-3,1.238261E-3,2.4252E-2,1.4430641E-2,3.377596E-2],"categories":[],"categories_nodes":[],"categories_segments":[],"categories_sizes":[],"default_left":[0,0,0,0,0,0,0,0,0,0,0,0,0,0,0],"id":38,"left_children":[1,3,5,7,9,11,13,-1,-1,-1,-1,-1,-1,-1,-1],"loss_changes":[2.5728104E1,1.2042528E1,5.079775E0,6.07086E0,4.1024327E0,4.229924E0,3.3220196E0,0E0,0E0,0E0,0E0,0E0,0E0,0E0,0E0],"parents":[2147483647,0,0,1,1,2,2,3,3,4,4,5,5,6,6],"right_children":[2,4,6,8,10,12,14,-1,-1,-1,-1,-1,-1,-1,-1],"split_conditions":[6.5746814E2,1E0,1E0,1E0,2.2687526E2,8.789646E2,1E0,-2.5570262E-2,-6.083045E-3,-1.6071761E-2,5.9728636E-3,1.238261E-3,2.4252E-2,1.4430641E-2,3.377596E-2],"split_indices":[0,2,3,3,0,0,2,0,0,0,0,0,0,0,0],"split_type":[0,0,0,0,0,0,0,0,0,0,0,0,0,0,0],"sum_hessian":[5.11E2,3.21E2,1.9E2,1.62E2,1.59E2,9.7E1,9.3E1,8.8E1,7.4E1,2.4E1,1.35E2,7E1,2.7E1,4.7E1,4.6E1],"tree_param":{"num_deleted":"0","num_feature":"17","num_nodes":"15","size_leaf_vector":"1"}},{"base_weights":[1.1136788E-2,-1.22724146E-1,3.237083E-1,-3.2877076E-1,7.692272E-2,1.1791893E-1,5.0160265E-1,-3.5433125E-2,-1.22207245E-2,-1.2703757E-2,7.665153E-3,-6.8989666E-3,1.163745E-2,1.6369272E-2,3.3371266E-2],"categories":[],"categories_nodes":[],"categories_segments":[],"categories_sizes":[],"default_left":[0,0,0,0,0,0,0,0,0,0,0,0,0,0,0],"id":39,"left_children":[1,3,5,7,9,11,13,-1,-1,-1,-1,-1,-1,-1,-1],"loss_changes":[2.0374506E1,1.4052858E1,5.2857304E0,5.2105618E0,4.437971E0,2.0596666E0,2.034851E0,0E0,0E0,0E0,0E0,0E0,0E0,0E0,0E0],"parents":[2147483647,0,0,1,1,2,2,3,3,4,4,5,5,6,6],"right_children":[2,4,6,8,10,12,14,-1,-1,-1,-1,-1,-1,-1,-1],"split_conditions":[7.406804E2,1E0,1E0,1.8158786E2,2.5282362E2,2.4151896E1,1E0,-3.5433125E-2,-1.22207245E-2,-1.2703757E-2,7.665153E-3,-6.8989666E-3,1.163745E-2,1.6369272E-2,3.3371266E-2],"split_indices":[0,2,3,0,0,1,2,0,0,0,0,0,0,0,0],"split_type":[0,0,0,0,0,0,0,0,0,0,0,0,0,0,0],"sum_hessian":[4.85E2,3.4E2,1.45E2,1.67E2,1.73E2,6.8E1,7.7E1,2.9E1,1.38E2,3.2E1,1.41E2,2.1E1,4.7E1,3.9E1,3.8E1],"tree_param":{"num_deleted":"0","num_feature":"17","num_nodes":"15","size_leaf_vector":"1"}},{"base_weights":[2.7847275E-2,-1.2062438E-1,2.731043E-1,-4.0036526E-1,-3.2997612E-2,1.8383598E-1,6.20886E-1,-2.7114818E-2,-1.0930446E-2,-8.885298E-3,4.9766325E-3,2.4273466E-4,1.9504711E-2,2.1414123E-2,4.108984E-2],"categories":[],"categories_nodes":[],"categories_segments":[],"categories_sizes":[],"default_left":[0,0,0,0,0,0,0,0,0,0,0,0,0,0,0],"id":40,"left_children":[1,3,5,7,9,11,13,-1,-1,-1,-1,-1,-1,-1,-1],"loss_changes":[1.8640356E1,7.806368E0,5.877715E0,1.8420115E0,4.697177E0,5.7201433E0,1.1571875E0,0E0,0E0,0E0,0E0,0E0,0E0,0E0,0E0],"parents":[2147483647,0,0,1,1,2,2,3,3,4,4,5,5,6,6],"right_children":[2,4,6,8,10,12,14,-1,-1,-1,-1,-1,-1,-1,-1],"split_conditions":[6.486968E2,2.3383734E2,3.4668907E1,1E0,1E0,1E0,8.479197E2,-2.7114818E-2,-1.0930446E-2,-8.885298E-3,4.9766325E-3,2.4273466E-4,1.9504711E-2,2.1414123E-2,4.108984E-2],"split_indices":[0,0,1,3,3,2,0,0,0,0,0,0,0,0,0],"split_type":[0,0,0,0,0,0,0,0,0,0,0,0,0,0,0],"sum_hessian":[5.1E2,3.18E2,1.92E2,7.5E1,2.43E2,1.54E2,3.8E1,4.1E1,3.4E1,1.16E2,1.27E2,8.3E1,7.1E1,2.1E1,1.7E1],"tree_param":{"num_deleted":"0","num_feature":"17","num_nodes":"15","size_leaf_vector":"1"}},{"base_weights":[1.4538845E-2,-1.0607021E-1,3.3921796E-1,-2.6043016E-1,5.049607E-2,1.78928E-1,4.8811778E-1,-2.074064E-2,-4.214245E-3,-2.2689202E-3,1.580086E-2,1.4856731E-3,1.9817976E-2,1.6156094E-2,3.315107E-2],"categories":[],"categories_nodes":[],"categories_segments":[],"categories_sizes":[],"default_left":[0,0,0,0,0,0,0,0,0,0,0,0,0,0,0],"id":41,"left_children":[1,3,5,7,9,11,13,-1,-1,-1,-1,-1,-1,-1,-1],"loss_changes":[2.0242147E1,9.124321E0,3.2540627E0,5.131854E0,4.800199E0,2.2268555E0,1.8635674E0,0E0,0E0,0E0,0E0,0E0,0E0,0E0,0E0],"parents":[2147483647,0,0,1,1,2,2,3,3,4,4,5,5,6,6],"right_children":[2,4,6,8,10,12,14,-1,-1,-1,-1,-1,-1,-1,-1],"split_conditions":[7.406804E2,1E0,1E0,1E0,3.3630028E1,8.789646E2,1E0,-2.074064E-2,-4.214245E-3,-2.2689202E-3,1.580086E-2,1.4856731E-3,1.9817976E-2,1.6156094E-2,3.315107E-2],"split_indices":[0,2,3,3,1,0,2,0,0,0,0,0,0,0,0],"split_type":[0,0,0,0,0,0,0,0,0,0,0,0,0,0,0],"sum_hessian":[5.15E2,3.76E2,1.39E2,1.89E2,1.87E2,6.8E1,7.1E1,1E2,8.9E1,1.38E2,4.9E1,4.1E1,2.7E1,3.8E1,3.3E1],"tree_param":{"num_deleted":"0","num_feature":"17","num_nodes":"15","size_leaf_vector":"1"}},{"base_weights":[5.9886742E-3,-1.3020276E-1,2.3060346E-1,-2.812694E-1,3.242477E-2,1.0463183E-1,4.3346784E-1,-2.8397618E-2,-7.991973E-3,-4.8118415E-3,7.2597163E-3,-3.9656516E-3,1.4648216E-2,1.7965935E-2,4.3604523E-2],"categories":[],"categories_nodes":[],"categories_segments":[],"categories_sizes":[],"default_left":[0,0,0,0,0,0,0,0,0,0,0,0,0,0,0],"id":42,"left_children":[1,3,5,7,9,11,13,-1,-1,-1,-1,-1,-1,-1,-1],"loss_changes":[1.5723007E1,7.870751E0,4.912346E0,5.687992E0,2.262885E0,4.2150145E0,2.093379E0,0E0,0E0,0E0,0E0,0E0,0E0,0E0,0E0],"parents":[2147483647,0,0,1,1,2,2,3,3,4,4,5,5,6,6],"right_children":[2,4,6,8,10,12,14,-1,-1,-1,-1,-1,-1,-1,-1],"split_conditions":[6.557367E2,1E0,3.0991152E1,2.5581364E2,1E0,1E0,3.8766697E1,-2.8397618E-2,-7.991973E-3,-4.8118415E-3,7.2597163E-3,-3.9656516E-3,1.4648216E-2,1.7965935E-2,4.3604523E-2],"split_indices":[0,3,1,0,2,3,1,0,0,0,0,0,0,0,0],"split_type":[0,0,0,0,0,0,0,0,0,0,0,0,0,0,0],"sum_hessian":[5.12E2,3.19E2,1.93E2,1.65E2,1.54E2,1.2E2,7.3E1,4.8E1,1.17E2,7.2E1,8.2E1,6.1E1,5.9E1,6.4E1,9E0],"tree_param":{"num_deleted":"0","num_feature":"17","num_nodes":"15","size_leaf_vector":"1"}},{"base_weights":[1.4086858E-2,-1.5392826E-1,1.7943215E-1,-4.5756882E-1,-7.117568E-2,-8.518563E-2,2.93103E-1,-2.8762316E-2,-1.4902653E-2,-7.066022E-3,1.2082995E-2,-1.2119403E-2,2.7665223E-3,7.4543655E-3,2.0878186E-2],"categories":[],"categories_nodes":[],"categories_segments":[],"categories_sizes":[],"default_left":[0,0,0,0,0,0,0,0,0,0,0,0,0,0,0],"id":43,"left_children":[1,3,5,7,9,11,13,-1,-1,-1,-1,-1,-1,-1,-1],"loss_changes":[1.4167899E1,6.3245735E0,7.755356E0,8.4220314E-1,4.4229064E0,1.7363901E0,3.1641207E0,0E0,0E0,0E0,0E0,0E0,0E0,0E0,0E0],"parents":[2147483647,0,0,1,1,2,2,3,3,4,4,5,5,6,6],"right_children":[2,4,6,8,10,12,14,-1,-1,-1,-1,-1,-1,-1,-1],"split_conditions":[1E0,2.771724E2,3.835625E2,1E0,3.556963E1,1E0,1E0,-2.8762316E-2,-1.4902653E-2,-7.066022E-3,1.2082995E-2,-1.2119403E-2,2.7665223E-3,7.4543655E-3,2.0878186E-2],"split_indices":[3,0,0,2,1,2,2,0,0,0,0,0,0,0,0],"split_type":[0,0,0,0,0,0,0,0,0,0,0,0,0,0,0],"sum_hessian":[5.08E2,2.52E2,2.56E2,5.3E1,1.99E2,7.7E1,1.79E2,2.9E1,2.4E1,1.63E2,3.6E1,3.6E1,4.1E1,8.4E1,9.5E1],"tree_param":{"num_deleted":"0","num_feature":"17","num_nodes":"15","size_leaf_vector":"1"}},{"base_weights":[-1.2271842E-2,-1.2130714E-1,2.5728875E-1,-2.4804696E-1,5.401469E-3,1.3353464E-1,4.9932277E-1,-2.9631501E-2,-9.15344E-3,-2.7858636E-3,1.2061884E-2,-1.4117698E-3,1.6302904E-2,2.7678806E-2,8.282045E-3],"categories":[],"categories_nodes":[],"categories_segments":[],"categories_sizes":[],"default_left":[0,0,0,0,0,0,0,0,0,0,0,0,0,0,0],"id":44,"left_children":[1,3,5,7,9,11,13,-1,-1,-1,-1,-1,-1,-1,-1],"loss_changes":[1.4286148E1,5.5577636E0,4.1267004E0,3.7650423E0,2.5214791E0,2.9367912E0,7.591629E-1,0E0,0E0,0E0,0E0,0E0,0E0,0E0,0E0],"parents":[2147483647,0,0,1,1,2,2,3,3,4,4,5,5,6,6],"right_children":[2,4,6,8,10,12,14,-1,-1,-1,-1,-1,-1,-1,-1],"split_conditions":[7.122092E2,1E0,3.0518053E1,1.7927951E2,3.4336163E1,1E0,1E0,-2.9631501E-2,-9.15344E-3,-2.7858636E-3,1.2061884E-2,-1.4117698E-3,1.6302904E-2,2.7678806E-2,8.282045E-3],"split_indices":[0,2,1,0,1,2,5,0,0,0,0,0,0,0,0],"split_type":[0,0,0,0,0,0,0,0,0,0,0,0,0,0,0],"sum_hessian":[4.84E2,3.45E2,1.39E2,1.72E2,1.73E2,9.3E1,4.6E1,2.6E1,1.46E2,1.38E2,3.5E1,5.1E1,4.2E1,3.9E1,7E0],"tree_param":{"num_deleted":"0","num_feature":"17","num_nodes":"15","size_leaf_vector":"1"}},{"base_weights":[-5.8201062E-3,-7.498616E-2,3.6032486E-1,-2.1651922E-1,5.8667686E-2,1.7244478E-1,5.9560376E-1,-1.743549E-2,-1.0163531E-3,-1.2654297E-2,5.2247588E-3,6.975916E-4,1.8400488E-2,-7.0206164E-3,3.2151427E-2],"categories":[],"categories_nodes":[],"categories_segments":[],"categories_sizes":[],"default_left":[0,0,0,0,0,0,0,0,0,0,0,0,0,0,0],"id":45,"left_children":[1,3,5,7,9,11,13,-1,-1,-1,-1,-1,-1,-1,-1],"loss_changes":[1.3069293E1,8.222436E0,3.5220375E0,5.465143E0,3.2267084E0,1.4516622E0,1.3468847E0,0E0,0E0,0E0,0E0,0E0,0E0,0E0,0E0],"parents":[2147483647,0,0,1,1,2,2,3,3,4,4,5,5,6,6],"right_children":[2,4,6,8,10,12,14,-1,-1,-1,-1,-1,-1,-1,-1],"split_conditions":[8.512003E2,1E0,1E0,2.9738419E1,2.2687526E2,2.8762222E1,1.6134851E1,-1.743549E-2,-1.0163531E-3,-1.2654297E-2,5.2247588E-3,6.975916E-4,1.8400488E-2,-7.0206164E-3,3.2151427E-2],"split_indices":[0,2,2,1,0,1,1,0,0,0,0,0,0,0,0],"split_type":[0,0,0,0,0,0,0,0,0,0,0,0,0,0,0],"sum_hessian":[5.14E2,4.33E2,8.1E1,2.1E2,2.23E2,4.6E1,3.5E1,1.25E2,8.5E1,2.8E1,1.95E2,2.6E1,2E1,2E0,3.3E1],"tree_param":{"num_deleted":"0","num_feature":"17","num_nodes":"15","size_leaf_vector":"1"}},{"base_weights":[1.6875478E-3,-2.57203E-1,1.1850811E-1,-4.31557E-1,-1.5314046E-1,-3.6566734E-2,2.6455995E-1,-2.477177E-2,-3.1310667E-3,-1.299601E-2,-1.2686838E-3,-9.278937E-3,9.7519895E-3,8.968177E-3,2.4244621E-2],"categories":[],"categories_nodes":[],"categories_segments":[],"categories_sizes":[],"default_left":[0,0,0,0,0,0,0,0,0,0,0,0,0,0,0],"id":46,"left_children":[1,3,5,7,9,11,13,-1,-1,-1,-1,-1,-1,-1,-1],"loss_changes":[1.5757226E1,2.8731928E0,8.140654E0,1.3829975E0,1.3986237E0,6.0758224E0,3.3857622E0,0E0,0E0,0E0,0E0,0E0,0E0,0E0,0E0],"parents":[2147483647,0,0,1,1,2,2,3,3,4,4,5,5,6,6],"right_children":[2,4,6,8,10,12,14,-1,-1,-1,-1,-1,-1,-1,-1],"split_conditions":[3.6804367E2,1.9661017E2,1E0,3.6498203E1,1E0,2.9529055E1,8.4483E2,-2.477177E-2,-3.1310667E-3,-1.299601E-2,-1.2686838E-3,-9.278937E-3,9.7519895E-3,8.968177E-3,2.4244621E-2],"split_indices":[0,0,3,1,2,1,0,0,0,0,0,0,0,0,0],"split_type":[0,0,0,0,0,0,0,0,0,0,0,0,0,0,0],"sum_hessian":[5.19E2,1.61E2,3.58E2,5.9E1,1.02E2,1.74E2,1.84E2,5E1,9E0,5.5E1,4.7E1,1.06E2,6.8E1,1.34E2,5E1],"tree_param":{"num_deleted":"0","num_feature":"17","num_nodes":"15","size_leaf_vector":"1"}},{"base_weights":[2.1241449E-6,-2.3305553E-1,8.709209E-2,-4.2208126E-1,-3.8084984E-2,-3.6925312E-2,2.3569629E-1,-2.2619052E-2,1.0305497E-2,-9.15104E-3,4.629833E-3,-4.9685477E-3,1.5481554E-2,4.659509E-3,1.9106783E-2],"categories":[],"categories_nodes":[],"categories_segments":[],"categories_sizes":[],"default_left":[0,0,0,0,0,0,0,0,0,0,0,0,0,0,0],"id":47,"left_children":[1,3,5,7,9,11,13,-1,-1,-1,-1,-1,-1,-1,-1],"loss_changes":[1.0595026E1,5.217257E0,7.011916E0,1.4636917E0,1.3617189E0,4.532083E0,3.5746393E0,0E0,0E0,0E0,0E0,0E0,0E0,0E0,0E0],"parents":[2147483647,0,0,1,1,2,2,3,3,4,4,5,5,6,6],"right_children":[2,4,6,8,10,12,14,-1,-1,-1,-1,-1,-1,-1,-1],"split_conditions":[3.5100262E2,1E0,2.7893248E1,3.8451664E1,1E0,8.8820764E2,1E0,-2.2619052E-2,1.0305497E-2,-9.15104E-3,4.629833E-3,-4.9685477E-3,1.5481554E-2,4.659509E-3,1.9106783E-2],"split_indices":[0,3,1,1,2,0,2,0,0,0,0,0,0,0,0],"split_type":[0,0,0,0,0,0,0,0,0,0,0,0,0,0,0],"sum_hessian":[5.2E2,1.41E2,3.79E2,7.1E1,7E1,2.07E2,1.72E2,6.8E1,3E0,3.3E1,3.7E1,1.76E2,3.1E1,8.8E1,8.4E1],"tree_param":{"num_deleted":"0","num_feature":"17","num_nodes":"15","size_leaf_vector":"1"}},{"base_weights":[-1.2700463E-2,-4.126926E-1,5.7535343E-2,-5.860337E-1,-2.993679E-1,-7.608016E-2,1.8370277E-1,-3.0691847E-2,4.8114033E-3,-1.1807811E-2,-2.7352287E-2,-6.5144687E-3,1.2766256E-2,3.3188965E-3,1.4376973E-2],"categories":[],"categories_nodes":[],"categories_segments":[],"categories_sizes":[],"default_left":[0,0,0,0,0,0,0,0,0,0,0,0,0,0,0],"id":48,"left_children":[1,3,5,7,9,11,13,-1,-1,-1,-1,-1,-1,-1,-1],"loss_changes":[1.4295379E1,1.3174906E0,7.3134575E0,6.091709E-1,6.2230587E-1,3.8239274E0,2.6976385E0,0E0,0E0,0E0,0E0,0E0,0E0,0E0,0E0],"parents":[2147483647,0,0,1,1,2,2,3,3,4,4,5,5,6,6],"right_children":[2,4,6,8,10,12,14,-1,-1,-1,-1,-1,-1,-1,-1],"split_conditions":[2.3383734E2,1.5485237E2,1E0,3.6498203E1,1E0,8.789646E2,1E0,-3.0691847E-2,4.8114033E-3,-1.1807811E-2,-2.7352287E-2,-6.5144687E-3,1.2766256E-2,3.3188965E-3,1.4376973E-2],"split_indices":[0,0,3,1,13,0,2,0,0,0,0,0,0,0,0],"split_type":[0,0,0,0,0,0,0,0,0,0,0,0,0,0,0],"sum_hessian":[5.07E2,7.5E1,4.32E2,2.8E1,4.7E1,2.1E2,2.22E2,2.7E1,1E0,3.9E1,8E0,1.81E2,2.9E1,1.05E2,1.17E2],"tree_param":{"num_deleted":"0","num_feature":"17","num_nodes":"15","size_leaf_vector":"1"}},{"base_weights":[1.5901117E-2,-9.329452E-2,2.0156431E-1,-2.281316E-1,5.315374E-2,6.595393E-2,3.3931288E-1,-2.2146627E-2,-7.070541E-3,8.372334E-4,1.8875662E-2,-1.6355914E-3,2.5588358E-2,9.770811E-3,2.4258751E-2],"categories":[],"categories_nodes":[],"categories_segments":[],"categories_sizes":[],"default_left":[0,0,0,0,0,0,0,0,0,0,0,0,0,0,0],"id":49,"left_children":[1,3,5,7,9,11,13,-1,-1,-1,-1,-1,-1,-1,-1],"loss_changes":[1.0621902E1,6.5285215E0,3.6015677E0,3.1413307E0,1.8714094E0,4.371404E0,1.9201403E0,0E0,0E0,0E0,0E0,0E0,0E0,0E0,0E0],"parents":[2147483647,0,0,1,1,2,2,3,3,4,4,5,5,6,6],"right_children":[2,4,6,8,10,12,14,-1,-1,-1,-1,-1,-1,-1,-1],"split_conditions":[6.486968E2,1E0,1E0,2.1922E1,3.7157265E1,3.4336163E1,1E0,-2.2146627E-2,-7.070541E-3,8.372334E-4,1.8875662E-2,-1.6355914E-3,2.5588358E-2,9.770811E-3,2.4258751E-2],"split_indices":[0,3,2,1,1,1,3,0,0,0,0,0,0,0,0],"split_type":[0,0,0,0,0,0,0,0,0,0,0,0,0,0,0],"sum_hessian":[5.22E2,3.29E2,1.93E2,1.71E2,1.58E2,9.8E1,9.5E1,4.8E1,1.23E2,1.43E2,1.5E1,8.1E1,1.7E1,4.9E1,4.6E1],"tree_param":{"num_deleted":"0","num_feature":"17","num_nodes":"15","size_leaf_vector":"1"}},{"base_weights":[-3.2194387E-2,-2.5185505E-1,5.301881E-2,-3.69748E-1,-1.0469507E-1,-7.835063E-2,1.8410166E-1,-2.0495448E-2,9.359743E-3,2.613036E-4,-1.0910727E-2,-1.4781761E-2,2.1575134E-4,5.795339E-3,1.9382454E-2],"categories":[],"categories_nodes":[],"categories_segments":[],"categories_sizes":[],"default_left":[0,0,0,0,0,0,0,0,0,0,0,0,0,0,0],"id":50,"left_children":[1,3,5,7,9,11,13,-1,-1,-1,-1,-1,-1,-1,-1],"loss_changes":[9.578245E0,2.442214E0,6.368708E0,1.8437538E0,8.122228E-1,3.3242402E0,2.523034E0,0E0,0E0,0E0,0E0,0E0,0E0,0E0,0E0],"parents":[2147483647,0,0,1,1,2,2,3,3,4,4,5,5,6,6],"right_children":[2,4,6,8,10,12,14,-1,-1,-1,-1,-1,-1,-1,-1],"split_conditions":[3.483354E2,1E0,1E0,3.8188313E1,2.7556679E1,2.1852215E1,8.4483E2,-2.0495448E-2,9.359743E-3,2.613036E-4,-1.0910727E-2,-1.4781761E-2,2.1575134E-4,5.795339E-3,1.9382454E-2],"split_indices":[0,2,3,1,1,1,0,0,0,0,0,0,0,0,0],"split_type":[0,0,0,0,0,0,0,0,0,0,0,0,0,0,0],"sum_hessian":[5.1E2,1.42E2,3.68E2,7.8E1,6.4E1,1.84E2,1.84E2,7.3E1,5E0,3.3E1,3.1E1,5E1,1.34E2,1.39E2,4.5E1],"tree_param":{"num_deleted":"0","num_feature":"17","num_nodes":"15","size_leaf_vector":"1"}},{"base_weights":[-1.07156485E-2,-1.3814062E-1,1.2430651E-1,-2.2020835E-1,2.0699088E-1,-5.8136187E-2,2.0297194E-1,-1.4546461E-2,2.0576704E-4,-2.147693E-2,1.2052142E-2,-5.408808E-3,1.2596895E-2,-1.171502E-3,1.4369808E-2],"categories":[],"categories_nodes":[],"categories_segments":[],"categories_sizes":[],"default_left":[0,0,0,0,0,0,0,0,0,0,0,0,0,0,0],"id":51,"left_children":[1,3,5,7,9,11,13,-1,-1,-1,-1,-1,-1,-1,-1],"loss_changes":[8.963873E0,7.636455E0,3.642839E0,3.4437666E0,1.2306409E0,1.2219934E0,3.3898787E0,0E0,0E0,0E0,0E0,0E0,0E0,0E0,0E0],"parents":[2147483647,0,0,1,1,2,2,3,3,4,4,5,5,6,6],"right_children":[2,4,6,8,10,12,14,-1,-1,-1,-1,-1,-1,-1,-1],"split_conditions":[1E0,8.5893097E2,3.5691077E2,3.4094696E1,1.5423533E1,3.632042E1,2.139884E1,-1.4546461E-2,2.0576704E-4,-2.147693E-2,1.2052142E-2,-5.408808E-3,1.2596895E-2,-1.171502E-3,1.4369808E-2],"split_indices":[2,0,0,1,1,1,1,0,0,0,0,0,0,0,0],"split_type":[0,0,0,0,0,0,0,0,0,0,0,0,0,0,0],"sum_hessian":[5.19E2,2.67E2,2.52E2,2.16E2,5.1E1,7.6E1,1.76E2,1.64E2,5.2E1,2E0,4.9E1,6.6E1,1E1,4.8E1,1.28E2],"tree_param":{"num_deleted":"0","num_feature":"17","num_nodes":"15","size_leaf_vector":"1"}},{"base_weights":[-5.83895E-3,-2.1796827E-1,7.629132E-2,-3.480095E-1,-7.552455E-2,-2.831972E-2,2.2788836E-1,-2.8964642E-2,-1.2959692E-2,1.7512981E-3,-1.0786705E-2,-4.264101E-3,1.286286E-2,6.9976333E-3,1.9021517E-2],"categories":[],"categories_nodes":[],"categories_segments":[],"categories_sizes":[],"default_left":[0,0,0,0,0,0,0,0,0,0,0,0,0,0,0],"id":52,"left_children":[1,3,5,7,9,11,13,-1,-1,-1,-1,-1,-1,-1,-1],"loss_changes":[8.989082E0,2.6411085E0,5.905899E0,1.3904696E0,1.0925728E0,3.6169727E0,1.9856677E0,0E0,0E0,0E0,0E0,0E0,0E0,0E0,0E0],"parents":[2147483647,0,0,1,1,2,2,3,3,4,4,5,5,6,6],"right_children":[2,4,6,8,10,12,14,-1,-1,-1,-1,-1,-1,-1,-1],"split_conditions":[3.5100262E2,1E0,2.9738419E1,1.5485237E2,1.12E2,8.8820764E2,7.57586E2,-2.8964642E-2,-1.2959692E-2,1.7512981E-3,-1.0786705E-2,-4.264101E-3,1.286286E-2,6.9976333E-3,1.9021517E-2],"split_indices":[0,2,1,0,4,0,0,0,0,0,0,0,0,0,0],"split_type":[0,0,0,0,0,0,0,0,0,0,0,0,0,0,0],"sum_hessian":[5.14E2,1.43E2,3.71E2,7.4E1,6.9E1,2.2E2,1.51E2,1.9E1,5.5E1,3.9E1,3E1,1.84E2,3.6E1,9.7E1,5.4E1],"tree_param":{"num_deleted":"0","num_feature":"17","num_nodes":"15","size_leaf_vector":"1"}},{"base_weights":[6.412835E-3,-1.0697852E-1,1.1456623E-1,-2.1808371E-1,1.8215222E-2,7.26221E-2,5.66931E-1,-2.0034513E-2,-6.8599135E-3,-8.584438E-3,5.0181877E-3,-1.149578E-3,7.823183E-3,-3.4392595E-3,3.0023936E-2],"categories":[],"categories_nodes":[],"categories_segments":[],"categories_sizes":[],"default_left":[0,0,0,0,0,0,0,0,0,0,0,0,0,0,0],"id":53,"left_children":[1,3,5,7,9,11,13,-1,-1,-1,-1,-1,-1,-1,-1],"loss_changes":[6.2544594E0,3.4674811E0,4.9110556E0,1.8946939E0,1.8580706E0,1.9275331E0,5.1049423E-1,0E0,0E0,0E0,0E0,0E0,0E0,0E0,0E0],"parents":[2147483647,0,0,1,1,2,2,3,3,4,4,5,5,6,6],"right_children":[2,4,6,8,10,12,14,-1,-1,-1,-1,-1,-1,-1,-1],"split_conditions":[1E0,1E0,8.789646E2,2.1922E1,3.954969E2,1E0,1.6134851E1,-2.0034513E-2,-6.8599135E-3,-8.584438E-3,5.0181877E-3,-1.149578E-3,7.823183E-3,-3.4392595E-3,3.0023936E-2],"split_indices":[2,3,0,1,0,3,1,0,0,0,0,0,0,0,0],"split_type":[0,0,0,0,0,0,0,0,0,0,0,0,0,0,0],"sum_hessian":[5.08E2,2.48E2,2.6E2,1.31E2,1.17E2,2.39E2,2.1E1,3.9E1,9.2E1,3.5E1,8.2E1,1.12E2,1.27E2,1E0,2E1],"tree_param":{"num_deleted":"0","num_feature":"17","num_nodes":"15","size_leaf_vector":"1"}},{"base_weights":[-1.240034E-2,-5.8192357E-2,3.0974352E-1,-1.7408067E-1,6.2075064E-2,6.274477E-2,4.2620328E-1,-1.1384809E-2,6.7867786E-3,-3.0896715E-3,8.746008E-3,-5.4490482E-3,1.0746565E-2,1.5159619E-2,3.1126142E-2],"categories":[],"categories_nodes":[],"categories_segments":[],"categories_sizes":[],"default_left":[0,0,0,0,0,0,0,0,0,0,0,0,0,0,0],"id":54,"left_children":[1,3,5,7,9,11,13,-1,-1,-1,-1,-1,-1,-1,-1],"loss_changes":[7.703617E0,6.3802834E0,1.8430095E0,3.9012604E0,3.1558478E0,5.9837896E-1,8.7383175E-1,0E0,0E0,0E0,0E0,0E0,0E0,0E0,0E0],"parents":[2147483647,0,0,1,1,2,2,3,3,4,4,5,5,6,6],"right_children":[2,4,6,8,10,12,14,-1,-1,-1,-1,-1,-1,-1,-1],"split_conditions":[8.76177E2,1E0,2.367093E1,3.6900436E1,1E0,1E0,1E0,-1.1384809E-2,6.7867786E-3,-3.0896715E-3,8.746008E-3,-5.4490482E-3,1.0746565E-2,1.5159619E-2,3.1126142E-2],"split_indices":[0,2,1,1,3,3,2,0,0,0,0,0,0,0,0],"split_type":[0,0,0,0,0,0,0,0,0,0,0,0,0,0,0],"sum_hessian":[5.2E2,4.56E2,6.4E1,2.32E2,2.24E2,2.1E1,4.3E1,1.98E2,3.4E1,1.07E2,1.17E2,1E1,1.1E1,2.8E1,1.5E1],"tree_param":{"num_deleted":"0","num_feature":"17","num_nodes":"15","size_leaf_vector":"1"}},{"base_weights":[1.0130973E-2,-2.0639585E-1,6.4107075E-2,-2.599685E-1,2.8929004E-2,4.5102225E-3,2.222889E-1,-1.6190989E-2,-1.972671E-3,-2.3205142E-2,5.474691E-3,-5.7862015E-3,5.850412E-3,2.7254065E-3,1.5498864E-2],"categories":[],"categories_nodes":[],"categories_segments":[],"categories_sizes":[],"default_left":[0,0,0,0,0,0,0,0,0,0,0,0,0,0,0],"id":55,"left_children":[1,3,5,7,9,11,13,-1,-1,-1,-1,-1,-1,-1,-1],"loss_changes":[6.032178E0,1.3060384E0,3.892406E0,1.1699581E0,8.452367E-1,4.0849013E0,1.6456084E0,0E0,0E0,0E0,0E0,0E0,0E0,0E0,0E0],"parents":[2147483647,0,0,1,1,2,2,3,3,4,4,5,5,6,6],"right_children":[2,4,6,8,10,12,14,-1,-1,-1,-1,-1,-1,-1,-1],"split_conditions":[2.6711392E2,1E0,3.3357803E1,3.383381E1,7.4E1,1E0,4.8284552E2,-1.6190989E-2,-1.972671E-3,-2.3205142E-2,5.474691E-3,-5.7862015E-3,5.850412E-3,2.7254065E-3,1.5498864E-2],"split_indices":[0,14,1,1,4,2,0,0,0,0,0,0,0,0,0],"split_type":[0,0,0,0,0,0,0,0,0,0,0,0,0,0,0],"sum_hessian":[5.14E2,1.02E2,4.12E2,8.3E1,1.9E1,3E2,1.12E2,6.4E1,1.9E1,2E0,1.7E1,1.45E2,1.55E2,3.9E1,7.3E1],"tree_param":{"num_deleted":"0","num_feature":"17","num_nodes":"15","size_leaf_vector":"1"}},{"base_weights":[1.1161274E-2,-6.151022E-2,2.1160698E-1,-1.6812867E-1,5.264155E-2,1.10306874E-1,3.7231877E-1,-1.1613615E-2,1.598685E-3,-1.0778619E-3,1.16422735E-2,-8.758219E-4,1.4305393E-2,1.2319925E-2,2.3347666E-2],"categories":[],"categories_nodes":[],"categories_segments":[],"categories_sizes":[],"default_left":[0,0,0,0,0,0,0,0,0,0,0,0,0,0,0],"id":56,"left_children":[1,3,5,7,9,11,13,-1,-1,-1,-1,-1,-1,-1,-1],"loss_changes":[7.2817936E0,4.4754915E0,2.1241865E0,2.4461327E0,2.385042E0,1.8701432E0,4.9268055E-1,0E0,0E0,0E0,0E0,0E0,0E0,0E0,0E0],"parents":[2147483647,0,0,1,1,2,2,3,3,4,4,5,5,6,6],"right_children":[2,4,6,8,10,12,14,-1,-1,-1,-1,-1,-1,-1,-1],"split_conditions":[7.733103E2,1E0,3.058843E1,3.496551E1,3.3630028E1,1E0,1E0,-1.1613615E-2,1.598685E-3,-1.0778619E-3,1.16422735E-2,-8.758219E-4,1.4305393E-2,1.2319925E-2,2.3347666E-2],"split_indices":[0,2,1,1,1,2,3,0,0,0,0,0,0,0,0],"split_type":[0,0,0,0,0,0,0,0,0,0,0,0,0,0,0],"sum_hessian":[4.98E2,3.66E2,1.32E2,1.89E2,1.77E2,8.2E1,5E1,1.43E2,4.6E1,1.26E2,5.1E1,4.8E1,3.4E1,2.3E1,2.7E1],"tree_param":{"num_deleted":"0","num_feature":"17","num_nodes":"15","size_leaf_vector":"1"}},{"base_weights":[-2.4148305E-3,-8.126947E-2,1.7039882E-1,-1.7784315E-1,2.3686092E-2,8.645506E-2,3.116623E-1,-1.7289175E-2,-5.823939E-3,3.7390445E-3,-1.0029691E-2,2.2854384E-3,2.3041239E-2,1.7991755E-2,5.4909745E-3],"categories":[],"categories_nodes":[],"categories_segments":[],"categories_sizes":[],"default_left":[0,0,0,0,0,0,0,0,0,0,0,0,0,0,0],"id":57,"left_children":[1,3,5,7,9,11,13,-1,-1,-1,-1,-1,-1,-1,-1],"loss_changes":[7.045462E0,3.6024733E0,1.8940811E0,1.8662505E0,1.9745812E0,1.550117E0,5.4388285E-1,0E0,0E0,0E0,0E0,0E0,0E0,0E0,0E0],"parents":[2147483647,0,0,1,1,2,2,3,3,4,4,5,5,6,6],"right_children":[2,4,6,8,10,12,14,-1,-1,-1,-1,-1,-1,-1,-1],"split_conditions":[7.163337E2,1E0,3.058843E1,2.1922E1,1E0,9.83476E2,1E0,-1.7289175E-2,-5.823939E-3,3.7390445E-3,-1.0029691E-2,2.2854384E-3,2.3041239E-2,1.7991755E-2,5.4909745E-3],"split_indices":[0,3,1,1,13,0,7,0,0,0,0,0,0,0,0],"split_type":[0,0,0,0,0,0,0,0,0,0,0,0,0,0,0],"sum_hessian":[5.15E2,3.54E2,1.61E2,1.84E2,1.7E2,1.02E2,5.9E1,4.8E1,1.36E2,1.39E2,3.1E1,9.3E1,9E0,4.7E1,1.2E1],"tree_param":{"num_deleted":"0","num_feature":"17","num_nodes":"15","size_leaf_vector":"1"}},{"base_weights":[-6.9579366E-3,-1.1219683E-1,9.78894E-2,-3.10871E-1,-3.3207595E-2,-7.801542E-2,1.7329212E-1,-2.511566E-2,-1.1297318E-2,-1.205462E-2,2.103409E-3,-5.6876377E-3,7.1750456E-3,6.460268E-3,1.7680949E-2],"categories":[],"categories_nodes":[],"categories_segments":[],"categories_sizes":[],"default_left":[0,0,0,0,0,0,0,0,0,0,0,0,0,0,0],"id":58,"left_children":[1,3,5,7,9,11,13,-1,-1,-1,-1,-1,-1,-1,-1],"loss_changes":[5.527992E0,3.9129574E0,3.342708E0,1.0408325E0,2.8269062E0,6.1797035E-1,1.3535151E0,0E0,0E0,0E0,0E0,0E0,0E0,0E0,0E0],"parents":[2147483647,0,0,1,1,2,2,3,3,4,4,5,5,6,6],"right_children":[2,4,6,8,10,12,14,-1,-1,-1,-1,-1,-1,-1,-1],"split_conditions":[1E0,2.2371382E1,3.6555176E2,8.9E1,3.5100262E2,1E0,1E0,-2.511566E-2,-1.1297318E-2,-1.205462E-2,2.103409E-3,-5.6876377E-3,7.1750456E-3,6.460268E-3,1.7680949E-2],"split_indices":[3,1,0,4,0,10,12,0,0,0,0,0,0,0,0],"split_type":[0,0,0,0,0,0,0,0,0,0,0,0,0,0,0],"sum_hessian":[4.99E2,2.49E2,2.5E2,7E1,1.79E2,7.5E1,1.75E2,2E1,5E1,4.7E1,1.32E2,6.5E1,1E1,1.42E2,3.3E1],"tree_param":{"num_deleted":"0","num_feature":"17","num_nodes":"15","size_leaf_vector":"1"}},{"base_weights":[3.8070646E-3,-4.895061E-2,2.4259387E-1,-2.0504837E-1,7.6039066E-3,2.0295902E-1,5.899682E-1,-2.4027234E-2,-7.3590786E-3,-2.4387634E-3,7.870836E-3,2.3178656E-2,7.0245336E-3,3.6718056E-2,2.8197686E-3],"categories":[],"categories_nodes":[],"categories_segments":[],"categories_sizes":[],"default_left":[0,0,0,0,0,0,0,0,0,0,0,0,0,0,0],"id":59,"left_children":[1,3,5,7,9,11,13,-1,-1,-1,-1,-1,-1,-1,-1],"loss_changes":[6.474565E0,3.718161E0,1.160697E0,1.7147865E0,2.6260378E0,1.3186834E0,6.5198255E-1,0E0,0E0,0E0,0E0,0E0,0E0,0E0,0E0],"parents":[2147483647,0,0,1,1,2,2,3,3,4,4,5,5,6,6],"right_children":[2,4,6,8,10,12,14,-1,-1,-1,-1,-1,-1,-1,-1],"split_conditions":[8.479197E2,2.9068976E2,9.9026746E2,1.3501776E2,3.3357803E1,7.5E1,1E0,-2.4027234E-2,-7.3590786E-3,-2.4387634E-3,7.870836E-3,2.3178656E-2,7.0245336E-3,3.6718056E-2,2.8197686E-3],"split_indices":[0,0,0,0,1,4,5,0,0,0,0,0,0,0,0],"split_type":[0,0,0,0,0,0,0,0,0,0,0,0,0,0,0],"sum_hessian":[5.12E2,4.2E2,9.2E1,1.11E2,3.09E2,8.4E1,8E0,1.8E1,9.3E1,2.25E2,8.4E1,1.5E1,6.9E1,6E0,2E0],"tree_param":{"num_deleted":"0","num_feature":"17","num_nodes":"15","size_leaf_vector":"1"}},{"base_weights":[3.1972195E-3,-1.8713585E-1,7.010286E-2,-3.186804E-1,-4.887149E-2,-2.2175374E-2,1.6743435E-1,-1.7890325E-2,3.9490145E-3,5.7090963E-3,-6.556194E-3,-3.3790623E-3,1.22380825E-2,5.63235E-3,2.1464515E-2],"categories":[],"categories_nodes":[],"categories_segments":[],"categories_sizes":[],"default_left":[0,0,0,0,0,0,0,0,0,0,0,0,0,0,0],"id":60,"left_children":[1,3,5,7,9,11,13,-1,-1,-1,-1,-1,-1,-1,-1],"loss_changes":[6.609514E0,2.4397955E0,3.4526386E0,1.1018238E0,9.135446E-1,2.416402E0,2.6344166E0,0E0,0E0,0E0,0E0,0E0,0E0,0E0,0E0],"parents":[2147483647,0,0,1,1,2,2,3,3,4,4,5,5,6,6],"right_children":[2,4,6,8,10,12,14,-1,-1,-1,-1,-1,-1,-1,-1],"split_conditions":[3.483354E2,1E0,1E0,1E0,8.1E1,8.789646E2,1E0,-1.7890325E-2,3.9490145E-3,5.7090963E-3,-6.556194E-3,-3.3790623E-3,1.22380825E-2,5.63235E-3,2.1464515E-2],"split_indices":[0,3,3,6,4,0,14,0,0,0,0,0,0,0,0],"split_type":[0,0,0,0,0,0,0,0,0,0,0,0,0,0,0],"sum_hessian":[5.17E2,1.34E2,3.83E2,6.8E1,6.6E1,1.97E2,1.86E2,6.2E1,6E0,2.2E1,4.4E1,1.69E2,2.8E1,1.55E2,3.1E1],"tree_param":{"num_deleted":"0","num_feature":"17","num_nodes":"15","size_leaf_vector":"1"}},{"base_weights":[6.7495164E-3,-9.0610296E-2,1.0862905E-1,-4.768786E-1,-6.429736E-2,7.9869576E-2,3.9775282E-1,-3.13701E-2,-4.817613E-3,-8.3594555E-3,1.6400872E-3,-1.8165142E-3,6.225632E-3,1.4223474E-2,3.743395E-2],"categories":[],"categories_nodes":[],"categories_segments":[],"categories_sizes":[],"default_left":[0,0,0,0,0,0,0,0,0,0,0,0,0,0,0],"id":61,"left_children":[1,3,5,7,9,11,13,-1,-1,-1,-1,-1,-1,-1,-1],"loss_changes":[5.2173033E0,2.7034144E0,2.1051984E0,9.1327596E-1,2.5331304E0,1.2235903E0,7.013681E-1,0E0,0E0,0E0,0E0,0E0,0E0,0E0,0E0],"parents":[2147483647,0,0,1,1,2,2,3,3,4,4,5,5,6,6],"right_children":[2,4,6,8,10,12,14,-1,-1,-1,-1,-1,-1,-1,-1],"split_conditions":[1E0,1.5229399E2,8.789646E2,1E0,1E0,2.1544306E1,9.765757E2,-3.13701E-2,-4.817613E-3,-8.3594555E-3,1.6400872E-3,-1.8165142E-3,6.225632E-3,1.4223474E-2,3.743395E-2],"split_indices":[2,0,0,10,3,1,0,0,0,0,0,0,0,0,0],"split_type":[0,0,0,0,0,0,0,0,0,0,0,0,0,0,0],"sum_hessian":[5.24E2,2.68E2,2.56E2,1.6E1,2.52E2,2.34E2,2.2E1,1.1E1,5E0,1.22E2,1.3E2,6.5E1,1.69E2,1.8E1,4E0],"tree_param":{"num_deleted":"0","num_feature":"17","num_nodes":"15","size_leaf_vector":"1"}},{"base_weights":[4.5275455E-3,-2.698037E-2,2.3517378E-1,-1.1756057E-1,5.9439313E-2,1.7479874E-1,5.316441E-1,-2.3542153E-2,-4.8455764E-3,-1.2979123E-3,7.0733437E-3,-1.99533E-2,9.675448E-3,3.6730576E-2,2.177006E-3],"categories":[],"categories_nodes":[],"categories_segments":[],"categories_sizes":[],"default_left":[0,0,0,0,0,0,0,0,0,0,0,0,0,0,0],"id":62,"left_children":[1,3,5,7,9,11,13,-1,-1,-1,-1,-1,-1,-1,-1],"loss_changes":[3.748944E0,3.5608602E0,1.0168326E0,1.5738482E0,1.6358263E0,6.4629054E-1,9.5870686E-1,0E0,0E0,0E0,0E0,0E0,0E0,0E0,0E0],"parents":[2147483647,0,0,1,1,2,2,3,3,4,4,5,5,6,6],"right_children":[2,4,6,8,10,12,14,-1,-1,-1,-1,-1,-1,-1,-1],"split_conditions":[8.789646E2,1E0,9.882436E2,1.3501776E2,1E0,1.5423533E1,1E0,-2.3542153E-2,-4.8455764E-3,-1.2979123E-3,7.0733437E-3,-1.99533E-2,9.675448E-3,3.6730576E-2,2.177006E-3],"split_indices":[0,2,0,0,3,1,5,0,0,0,0,0,0,0,0],"split_type":[0,0,0,0,0,0,0,0,0,0,0,0,0,0,0],"sum_hessian":[5.14E2,4.53E2,6.1E1,2.21E2,2.32E2,5.2E1,9E0,1.1E1,2.1E2,1.14E2,1.18E2,1E0,5.1E1,6E0,3E0],"tree_param":{"num_deleted":"0","num_feature":"17","num_nodes":"15","size_leaf_vector":"1"}},{"base_weights":[-1.6372938E-3,-1.5910915E-1,4.4397134E-2,-2.0402798E-1,9.179288E-2,-4.784309E-2,1.3594024E-1,-3.382321E-2,-9.08769E-3,-1.1378634E-2,7.296844E-3,-5.130278E-3,9.843732E-3,8.4364135E-3,-1.8685572E-3],"categories":[],"categories_nodes":[],"categories_segments":[],"categories_sizes":[],"default_left":[0,0,0,0,0,0,0,0,0,0,0,0,0,0,0],"id":63,"left_children":[1,3,5,7,9,11,13,-1,-1,-1,-1,-1,-1,-1,-1],"loss_changes":[3.6533747E0,1.303534E0,3.2996469E0,8.977933E-1,3.4446228E-1,2.6334631E0,1.1200826E0,0E0,0E0,0E0,0E0,0E0,0E0,0E0,0E0],"parents":[2147483647,0,0,1,1,2,2,3,3,4,4,5,5,6,6],"right_children":[2,4,6,8,10,12,14,-1,-1,-1,-1,-1,-1,-1,-1],"split_conditions":[2.9068976E2,1E0,1E0,1.075587E2,1.3163025E2,3.556963E1,1E0,-3.382321E-2,-9.08769E-3,-1.1378634E-2,7.296844E-3,-5.130278E-3,9.843732E-3,8.4364135E-3,-1.8685572E-3],"split_indices":[0,14,3,0,0,1,11,0,0,0,0,0,0,0,0],"split_type":[0,0,0,0,0,0,0,0,0,0,0,0,0,0,0],"sum_hessian":[5.02E2,1.13E2,3.89E2,9.6E1,1.7E1,1.94E2,1.95E2,3E0,9.3E1,2E0,1.5E1,1.59E2,3.5E1,1.64E2,3.1E1],"tree_param":{"num_deleted":"0","num_feature":"17","num_nodes":"15","size_leaf_vector":"1"}},{"base_weights":[-1.1511152E-2,-1.5209849E-1,4.302541E-2,-1.7460468E-1,3.1653875E-1,-3.784224E-2,1.2409543E-1,-2.1634407E-2,-6.2503866E-3,1.9216694E-2,-2.2558034E-3,-3.7685726E-3,1.0493153E-2,-4.2046155E-4,1.0744755E-2],"categories":[],"categories_nodes":[],"categories_segments":[],"categories_sizes":[],"default_left":[0,0,0,0,0,0,0,0,0,0,0,0,0,0,0],"id":64,"left_children":[1,3,5,7,9,11,13,-1,-1,-1,-1,-1,-1,-1,-1],"loss_changes":[3.978128E0,1.5846193E0,2.4566183E0,1.7251325E0,1.8896872E-1,1.7635001E0,2.251675E0,0E0,0E0,0E0,0E0,0E0,0E0,0E0,0E0],"parents":[2147483647,0,0,1,1,2,2,3,3,4,4,5,5,6,6],"right_children":[2,4,6,8,10,12,14,-1,-1,-1,-1,-1,-1,-1,-1],"split_conditions":[3.5100262E2,3.8550728E1,1E0,1.4218004E2,1E0,9.088984E2,2.4262888E1,-2.1634407E-2,-6.2503866E-3,1.9216694E-2,-2.2558034E-3,-3.7685726E-3,1.0493153E-2,-4.2046155E-4,1.0744755E-2],"split_indices":[0,1,2,0,5,0,1,0,0,0,0,0,0,0,0],"split_type":[0,0,0,0,0,0,0,0,0,0,0,0,0,0,0],"sum_hessian":[5.17E2,1.44E2,3.73E2,1.38E2,6E0,1.87E2,1.86E2,2.1E1,1.17E2,5E0,1E0,1.63E2,2.4E1,7.6E1,1.1E2],"tree_param":{"num_deleted":"0","num_feature":"17","num_nodes":"15","size_leaf_vector":"1"}},{"base_weights":[2.8715483E-3,-3.555573E-2,1.9678251E-1,-1.1153906E-1,3.988865E-2,-3.215835E-1,2.1966887E-1,-1.2236683E-2,-2.6538903E-3,-3.6905005E-3,5.2995435E-3,-2.0335675E-3,-2.0083189E-2,9.37756E-3,2.4665682E-2],"categories":[],"categories_nodes":[],"categories_segments":[],"categories_sizes":[],"default_left":[0,0,0,0,0,0,0,0,0,0,0,0,0,0,0],"id":65,"left_children":[1,3,5,7,9,11,13,-1,-1,-1,-1,-1,-1,-1,-1],"loss_changes":[3.8296013E0,2.463698E0,1.0790405E0,1.6533685E0,1.6312218E0,7.364589E-2,6.2816286E-1,0E0,0E0,0E0,0E0,0E0,0E0,0E0,0E0],"parents":[2147483647,0,0,1,1,2,2,3,3,4,4,5,5,6,6],"right_children":[2,4,6,8,10,12,14,-1,-1,-1,-1,-1,-1,-1,-1],"split_conditions":[8.479197E2,1E0,1.5423533E1,2.1922E1,3.6804367E2,8.512003E2,9.9026746E2,-1.2236683E-2,-2.6538903E-3,-3.6905005E-3,5.2995435E-3,-2.0335675E-3,-2.0083189E-2,9.37756E-3,2.4665682E-2],"split_indices":[0,3,1,1,0,0,0,0,0,0,0,0,0,0,0],"split_type":[0,0,0,0,0,0,0,0,0,0,0,0,0,0,0],"sum_hessian":[5.12E2,4.28E2,8.4E1,2.13E2,2.15E2,3E0,8.1E1,6.4E1,1.49E2,7.9E1,1.36E2,1E0,2E0,7.4E1,7E0],"tree_param":{"num_deleted":"0","num_feature":"17","num_nodes":"15","size_leaf_vector":"1"}},{"base_weights":[-1.546336E-2,-5.1448215E-2,2.2554505E-1,-1.3575454E-1,3.2346476E-2,2.829344E-1,3.907005E-3,-1.1755626E-2,-1.3017853E-3,1.6869877E-4,1.7619563E-2,8.710759E-3,2.2952318E-2,1.6158773E-2,-5.14207E-3],"categories":[],"categories_nodes":[],"categories_segments":[],"categories_sizes":[],"default_left":[0,0,0,0,0,0,0,0,0,0,0,0,0,0,0],"id":66,"left_children":[1,3,5,7,9,11,13,-1,-1,-1,-1,-1,-1,-1,-1],"loss_changes":[4.538728E0,3.2187033E0,8.6383176E-1,2.4685059E0,2.1222131E0,9.5395184E-1,5.4445684E-1,0E0,0E0,0E0,0E0,0E0,0E0,0E0,0E0],"parents":[2147483647,0,0,1,1,2,2,3,3,4,4,5,5,6,6],"right_children":[2,4,6,8,10,12,14,-1,-1,-1,-1,-1,-1,-1,-1],"split_conditions":[3.6577797E1,1E0,1E0,1E0,8.7740125E2,3.8715923E1,3.2522183E2,-1.1755626E-2,-1.3017853E-3,1.6869877E-4,1.7619563E-2,8.710759E-3,2.2952318E-2,1.6158773E-2,-5.14207E-3],"split_indices":[1,2,10,3,0,1,0,0,0,0,0,0,0,0,0],"split_type":[0,0,0,0,0,0,0,0,0,0,0,0,0,0,0],"sum_hessian":[5.21E2,4.54E2,6.7E1,2.26E2,2.28E2,5.3E1,1.4E1,1.18E2,1.08E2,2.1E2,1.8E1,3.4E1,1.9E1,3E0,1.1E1],"tree_param":{"num_deleted":"0","num_feature":"17","num_nodes":"15","size_leaf_vector":"1"}},{"base_weights":[1.5948632E-3,-8.024407E-2,8.732457E-2,-1.16591856E-1,1.6906716E-1,1.322589E-2,1.8761505E-1,-2.3020698E-2,-4.443182E-3,-1.7051455E-3,1.757787E-2,-2.714602E-3,9.675286E-3,4.1015935E-3,1.5097054E-2],"categories":[],"categories_nodes":[],"categories_segments":[],"categories_sizes":[],"default_left":[0,0,0,0,0,0,0,0,0,0,0,0,0,0,0],"id":67,"left_children":[1,3,5,7,9,11,13,-1,-1,-1,-1,-1,-1,-1,-1],"loss_changes":[3.6202617E0,2.4120564E0,1.8702295E0,2.161342E0,1.272592E0,1.7876353E0,1.2668178E0,0E0,0E0,0E0,0E0,0E0,0E0,0E0,0E0],"parents":[2147483647,0,0,1,1,2,2,3,3,4,4,5,5,6,6],"right_children":[2,4,6,8,10,12,14,-1,-1,-1,-1,-1,-1,-1,-1],"split_conditions":[1E0,3.6900436E1,6.217784E2,1.5485237E2,5.0436447E2,3.322487E1,1E0,-2.3020698E-2,-4.443182E-3,-1.7051455E-3,1.757787E-2,-2.714602E-3,9.675286E-3,4.1015935E-3,1.5097054E-2],"split_indices":[2,1,0,0,0,1,3,0,0,0,0,0,0,0,0],"split_type":[0,0,0,0,0,0,0,0,0,0,0,0,0,0,0],"sum_hessian":[5.14E2,2.63E2,2.51E2,2.3E2,3.3E1,1.45E2,1.06E2,1.6E1,2.14E2,1.6E1,1.7E1,1.06E2,3.9E1,5.6E1,5E1],"tree_param":{"num_deleted":"0","num_feature":"17","num_nodes":"15","size_leaf_vector":"1"}},{"base_weights":[4.090422E-3,-8.38228E-2,9.198754E-2,-9.764682E-2,5.038444E-1,6.2605664E-2,3.5862127E-1,-6.3873264E-3,4.502065E-3,7.0197135E-3,2.742278E-2,4.566836E-3,-6.238775E-3,2.049119E-2,-6.3239934E-4],"categories":[],"categories_nodes":[],"categories_segments":[],"categories_sizes":[],"default_left":[0,0,0,0,0,0,0,0,0,0,0,0,0,0,0],"id":68,"left_children":[1,3,5,7,9,11,13,-1,-1,-1,-1,-1,-1,-1,-1],"loss_changes":[3.9254613E0,2.1126752E0,1.9674346E0,1.4181926E0,2.028358E-2,1.2496378E0,4.804318E-1,0E0,0E0,0E0,0E0,0E0,0E0,0E0,0E0],"parents":[2147483647,0,0,1,1,2,2,3,3,4,4,5,5,6,6],"right_children":[2,4,6,8,10,12,14,-1,-1,-1,-1,-1,-1,-1,-1],"split_conditions":[1E0,3.9686104E1,8.789646E2,8.789646E2,1.1418885E2,1E0,1E0,-6.3873264E-3,4.502065E-3,7.0197135E-3,2.742278E-2,4.566836E-3,-6.238775E-3,2.049119E-2,-6.3239934E-4],"split_indices":[2,1,0,0,0,13,5,0,0,0,0,0,0,0,0],"split_type":[0,0,0,0,0,0,0,0,0,0,0,0,0,0,0],"sum_hessian":[5.06E2,2.53E2,2.53E2,2.48E2,5E0,2.29E2,2.4E1,2.14E2,3.4E1,1E0,4E0,1.99E2,3E1,2.1E1,3E0],"tree_param":{"num_deleted":"0","num_feature":"17","num_nodes":"15","size_leaf_vector":"1"}},{"base_weights":[-5.9157643E-3,-6.9785945E-2,9.844765E-2,-1.18241385E-1,6.532894E-2,4.8984634E-3,1.8533278E-1,-3.692689E-2,-5.478049E-3,1.0579996E-2,-1.0729202E-3,-1.5021219E-3,1.6717581E-2,4.9331994E-3,1.4152273E-2],"categories":[],"categories_nodes":[],"categories_segments":[],"categories_sizes":[],"default_left":[0,0,0,0,0,0,0,0,0,0,0,0,0,0,0],"id":69,"left_children":[1,3,5,7,9,11,13,-1,-1,-1,-1,-1,-1,-1,-1],"loss_changes":[3.353057E0,2.0504043E0,1.5515465E0,1.1575019E0,1.0581816E0,1.080604E0,8.104687E-1,0E0,0E0,0E0,0E0,0E0,0E0,0E0,0E0],"parents":[2147483647,0,0,1,1,2,2,3,3,4,4,5,5,6,6],"right_children":[2,4,6,8,10,12,14,-1,-1,-1,-1,-1,-1,-1,-1],"split_conditions":[6.486968E2,3.4336163E1,1E0,1.075587E2,9.7E1,9.765757E2,1E0,-3.692689E-2,-5.478049E-3,1.0579996E-2,-1.0729202E-3,-1.5021219E-3,1.6717581E-2,4.9331994E-3,1.4152273E-2],"split_indices":[0,1,3,0,4,0,2,0,0,0,0,0,0,0,0],"split_type":[0,0,0,0,0,0,0,0,0,0,0,0,0,0,0],"sum_hessian":[5.01E2,3.11E2,1.9E2,2.29E2,8.2E1,9.2E1,9.8E1,2E0,2.27E2,3E1,5.2E1,8.4E1,8E0,5.3E1,4.5E1],"tree_param":{"num_deleted":"0","num_feature":"17","num_nodes":"15","size_leaf_vector":"1"}},{"base_weights":[-1.5994454E-3,-1.3258462E-1,5.6867383E-2,-2.1527302E-1,-5.1321905E-2,-2.0967696E-2,1.3660136E-1,-1.4999243E-2,-4.2062597E-3,-4.377887E-3,1.24146715E-2,-3.4889397E-3,7.5807804E-3,2.064345E-3,1.1626842E-2],"categories":[],"categories_nodes":[],"categories_segments":[],"categories_sizes":[],"default_left":[0,0,0,0,0,0,0,0,0,0,0,0,0,0,0],"id":70,"left_children":[1,3,5,7,9,11,13,-1,-1,-1,-1,-1,-1,-1,-1],"loss_changes":[3.920925E0,1.0506303E0,2.1998239E0,8.413265E-1,9.0114176E-1,1.5268959E0,1.5906055E0,0E0,0E0,0E0,0E0,0E0,0E0,0E0,0E0],"parents":[2147483647,0,0,1,1,2,2,3,3,4,4,5,5,6,6],"right_children":[2,4,6,8,10,12,14,-1,-1,-1,-1,-1,-1,-1,-1],"split_conditions":[3.6804367E2,1E0,2.7893248E1,2.5581364E2,3.731459E1,8.512003E2,1E0,-1.4999243E-2,-4.2062597E-3,-4.377887E-3,1.24146715E-2,-3.4889397E-3,7.5807804E-3,2.064345E-3,1.1626842E-2],"split_indices":[0,3,1,0,1,0,2,0,0,0,0,0,0,0,0],"split_type":[0,0,0,0,0,0,0,0,0,0,0,0,0,0,0],"sum_hessian":[5.1E2,1.57E2,3.53E2,7.7E1,8E1,1.79E2,1.74E2,4.6E1,3.1E1,7.2E1,8E0,1.4E2,3.9E1,8.8E1,8.6E1],"tree_param":{"num_deleted":"0","num_feature":"17","num_nodes":"15","size_leaf_vector":"1"}},{"base_weights":[8.319614E-3,-1.2065353E-1,6.4561956E-2,-1.7983155E-1,1.2994334E-1,-1.5377571E-2,1.5070495E-1,-1.1813056E-2,3.3687236E-4,-3.5507232E-3,1.1698648E-2,-8.921797E-3,2.597736E-3,1.3721821E-2,4.2931545E-3],"categories":[],"categories_nodes":[],"categories_segments":[],"categories_sizes":[],"default_left":[0,0,0,0,0,0,0,0,0,0,0,0,0,0,0],"id":71,"left_children":[1,3,5,7,9,11,13,-1,-1,-1,-1,-1,-1,-1,-1],"loss_changes":[3.6781878E0,2.3071613E0,2.4331567E0,1.3175931E0,6.437824E-1,2.029424E0,1.3403428E0,0E0,0E0,0E0,0E0,0E0,0E0,0E0,0E0],"parents":[2147483647,0,0,1,1,2,2,3,3,4,4,5,5,6,6],"right_children":[2,4,6,8,10,12,14,-1,-1,-1,-1,-1,-1,-1,-1],"split_conditions":[3.7676648E2,1E0,1E0,1E0,1.9661017E2,2.225704E1,9.2E1,-1.1813056E-2,3.3687236E-4,-3.5507232E-3,1.1698648E-2,-8.921797E-3,2.597736E-3,1.3721821E-2,4.2931545E-3],"split_indices":[0,14,3,10,0,1,4,0,0,0,0,0,0,0,0],"split_type":[0,0,0,0,0,0,0,0,0,0,0,0,0,0,0],"sum_hessian":[5.05E2,1.53E2,3.52E2,1.24E2,2.9E1,1.83E2,1.69E2,9.5E1,2.9E1,1E1,1.9E1,5.3E1,1.3E2,5.7E1,1.12E2],"tree_param":{"num_deleted":"0","num_feature":"17","num_nodes":"15","size_leaf_vector":"1"}},{"base_weights":[-1.4075639E-2,-4.3219298E-2,2.0425066E-1,-8.551984E-2,8.635821E-2,1.7092225E-1,5.366789E-1,-6.111615E-3,4.7226567E-3,6.267263E-3,-1.3973228E-2,-1.2349368E-3,1.1241738E-2,3.258567E-2,1.9135237E-3],"categories":[],"categories_nodes":[],"categories_segments":[],"categories_sizes":[],"default_left":[0,0,0,0,0,0,0,0,0,0,0,0,0,0,0],"id":72,"left_children":[1,3,5,7,9,11,13,-1,-1,-1,-1,-1,-1,-1,-1],"loss_changes":[3.241144E0,2.4684439E0,5.730283E-1,2.251403E0,1.6181502E0,5.961524E-1,2.6172936E-1,0E0,0E0,0E0,0E0,0E0,0E0,0E0,0E0],"parents":[2147483647,0,0,1,1,2,2,3,3,4,4,5,5,6,6],"right_children":[2,4,6,8,10,12,14,-1,-1,-1,-1,-1,-1,-1,-1],"split_conditions":[8.789646E2,3.4227924E1,9.926733E2,1E0,1E0,1.9717302E1,1E0,-6.111615E-3,4.7226567E-3,6.267263E-3,-1.3973228E-2,-1.2349368E-3,1.1241738E-2,3.258567E-2,1.9135237E-3],"split_indices":[0,1,0,8,13,1,5,0,0,0,0,0,0,0,0],"split_type":[0,0,0,0,0,0,0,0,0,0,0,0,0,0,0],"sum_hessian":[5.07E2,4.48E2,5.9E1,3.38E2,1.1E2,5.5E1,4E0,2.81E2,5.7E1,1E2,1E1,1.2E1,4.3E1,3E0,1E0],"tree_param":{"num_deleted":"0","num_feature":"17","num_nodes":"15","size_leaf_vector":"1"}},{"base_weights":[-1.0668095E-3,-2.852878E-2,1.8369353E-1,-5.8821395E-2,1.2129517E-1,3.8595937E-2,3.0353606E-1,-1.9533213E-2,-2.18497E-3,5.422121E-4,1.2708353E-2,5.7705184E-3,-1.2062751E-2,1.725705E-2,-1.1721373E-3],"categories":[],"categories_nodes":[],"categories_segments":[],"categories_sizes":[],"default_left":[0,0,0,0,0,0,0,0,0,0,0,0,0,0,0],"id":73,"left_children":[1,3,5,7,9,11,13,-1,-1,-1,-1,-1,-1,-1,-1],"loss_changes":[2.5878468E0,2.0222552E0,1.1359496E0,1.8396345E0,1.0979303E0,6.942376E-1,4.9783278E-1,0E0,0E0,0E0,0E0,0E0,0E0,0E0,0E0],"parents":[2147483647,0,0,1,1,2,2,3,3,4,4,5,5,6,6],"right_children":[2,4,6,8,10,12,14,-1,-1,-1,-1,-1,-1,-1,-1],"split_conditions":[3.6498203E1,1E0,4.593699E2,1.4218004E2,2.7772018E1,3.861059E2,1E0,-1.9533213E-2,-2.18497E-3,5.422121E-4,1.2708353E-2,5.7705184E-3,-1.2062751E-2,1.725705E-2,-1.1721373E-3],"split_indices":[1,10,0,0,1,0,10,0,0,0,0,0,0,0,0],"split_type":[0,0,0,0,0,0,0,0,0,0,0,0,0,0,0],"sum_hessian":[5.08E2,4.43E2,6.5E1,3.69E2,7.4E1,3E1,3.5E1,1.5E1,3.54E2,4.1E1,3.3E1,2.4E1,6E0,3.1E1,4E0],"tree_param":{"num_deleted":"0","num_feature":"17","num_nodes":"15","size_leaf_vector":"1"}},{"base_weights":[-4.765521E-3,-1.2811714E-1,4.0132683E-2,-3.285947E-1,-9.8400876E-2,-2.5463628E-2,1.0411986E-1,9.7215775E-4,-2.0228153E-2,1.3324578E-3,-6.949544E-3,-8.748687E-3,1.6591455E-3,3.2298237E-3,1.1065781E-2],"categories":[],"categories_nodes":[],"categories_segments":[],"categories_sizes":[],"default_left":[0,0,0,0,0,0,0,0,0,0,0,0,0,0,0],"id":74,"left_children":[1,3,5,7,9,11,13,-1,-1,-1,-1,-1,-1,-1,-1],"loss_changes":[2.8019662E0,7.7192116E-1,1.5598578E0,4.5734334E-1,6.077219E-1,1.619164E0,8.5651493E-1,0E0,0E0,0E0,0E0,0E0,0E0,0E0,0E0],"parents":[2147483647,0,0,1,1,2,2,3,3,4,4,5,5,6,6],"right_children":[2,4,6,8,10,12,14,-1,-1,-1,-1,-1,-1,-1,-1],"split_conditions":[3.483354E2,1.3501776E2,1E0,7.7E1,8.1E1,2.1922E1,8.4483E2,9.7215775E-4,-2.0228153E-2,1.3324578E-3,-6.949544E-3,-8.748687E-3,1.6591455E-3,3.2298237E-3,1.1065781E-2],"split_indices":[0,0,3,4,4,1,0,0,0,0,0,0,0,0,0],"split_type":[0,0,0,0,0,0,0,0,0,0,0,0,0,0,0],"sum_hessian":[5.04E2,1.34E2,3.7E2,1.6E1,1.18E2,1.83E2,1.87E2,3E0,1.3E1,2.9E1,8.9E1,5.1E1,1.32E2,1.41E2,4.6E1],"tree_param":{"num_deleted":"0","num_feature":"17","num_nodes":"15","size_leaf_vector":"1"}},{"base_weights":[-1.2867796E-3,-6.931237E-2,6.623596E-2,-1.410772E-1,1.1545997E-2,3.3126257E-2,2.487427E-1,-7.586443E-3,8.94967E-3,-3.065343E-4,2.7610874E-2,9.934879E-4,1.2541996E-2,1.0135814E-2,3.1190414E-2],"categories":[],"categories_nodes":[],"categories_segments":[],"categories_sizes":[],"default_left":[0,0,0,0,0,0,0,0,0,0,0,0,0,0,0],"id":75,"left_children":[1,3,5,7,9,11,13,-1,-1,-1,-1,-1,-1,-1,-1],"loss_changes":[2.4528062E0,1.5451705E0,1.6112154E0,5.0786686E-1,1.2076025E0,6.5305156E-1,5.8132434E-1,0E0,0E0,0E0,0E0,0E0,0E0,0E0,0E0],"parents":[2147483647,0,0,1,1,2,2,3,3,4,4,5,5,6,6],"right_children":[2,4,6,8,10,12,14,-1,-1,-1,-1,-1,-1,-1,-1],"split_conditions":[1E0,1E0,1E0,3.9686104E1,9.765757E2,1.45E2,9.433883E2,-7.586443E-3,8.94967E-3,-3.065343E-4,2.7610874E-2,9.934879E-4,1.2541996E-2,1.0135814E-2,3.1190414E-2],"split_indices":[3,2,14,1,0,4,0,0,0,0,0,0,0,0,0],"split_type":[0,0,0,0,0,0,0,0,0,0,0,0,0,0,0],"sum_hessian":[5.32E2,2.65E2,2.67E2,1.4E2,1.25E2,2.27E2,4E1,1.36E2,4E0,1.22E2,3E0,2.15E2,1.2E1,3.7E1,3E0],"tree_param":{"num_deleted":"0","num_feature":"17","num_nodes":"15","size_leaf_vector":"1"}},{"base_weights":[4.1450487E-4,-5.9521906E-2,6.426344E-2,-8.366185E-2,1.7170565E-1,5.29909E-2,5.947472E-1,1.0110588E-2,-4.990358E-3,3.7002761E-3,1.8503387E-2,-2.0883217E-2,3.1348371E-3,6.743586E-3,3.3799905E-2],"categories":[],"categories_nodes":[],"categories_segments":[],"categories_sizes":[],"default_left":[0,0,0,0,0,0,0,0,0,0,0,0,0,0,0],"id":76,"left_children":[1,3,5,7,9,11,13,-1,-1,-1,-1,-1,-1,-1,-1],"loss_changes":[1.9363973E0,1.4712203E0,1.433559E0,1.1140599E0,4.5711303E-1,1.1270998E0,9.565365E-2,0E0,0E0,0E0,0E0,0E0,0E0,0E0,0E0],"parents":[2147483647,0,0,1,1,2,2,3,3,4,4,5,5,6,6],"right_children":[2,4,6,8,10,12,14,-1,-1,-1,-1,-1,-1,-1,-1],"split_conditions":[1E0,9.088984E2,9.765757E2,6.6E1,3.4336163E1,6.1E1,7.8E1,1.0110588E-2,-4.990358E-3,3.7002761E-3,1.8503387E-2,-2.0883217E-2,3.1348371E-3,6.743586E-3,3.3799905E-2],"split_indices":[2,0,0,4,1,4,4,0,0,0,0,0,0,0,0],"split_type":[0,0,0,0,0,0,0,0,0,0,0,0,0,0,0],"sum_hessian":[5.04E2,2.6E2,2.44E2,2.36E2,2.4E1,2.4E2,4E0,1.2E1,2.24E2,1.7E1,7E0,4E0,2.36E2,1E0,3E0],"tree_param":{"num_deleted":"0","num_feature":"17","num_nodes":"15","size_leaf_vector":"1"}},{"base_weights":[3.6335061E-3,-1.1965062E-1,3.8634986E-2,-1.5823077E-1,7.537466E-2,2.9164052E-2,4.1645002E-1,1.8614078E-3,-1.0765041E-2,-1.729474E-3,1.4226757E-2,-1.5746976E-3,4.198102E-3,1.0607045E-2,3.3493925E-2],"categories":[],"categories_nodes":[],"categories_segments":[],"categories_sizes":[],"default_left":[0,0,0,0,0,0,0,0,0,0,0,0,0,0,0],"id":77,"left_children":[1,3,5,7,9,11,13,-1,-1,-1,-1,-1,-1,-1,-1],"loss_changes":[2.2830095E0,8.9224696E-1,1.4620978E0,1.1011908E0,4.69845E-1,1.3421906E0,3.75669E-1,0E0,0E0,0E0,0E0,0E0,0E0,0E0,0E0],"parents":[2147483647,0,0,1,1,2,2,3,3,4,4,5,5,6,6],"right_children":[2,4,6,8,10,12,14,-1,-1,-1,-1,-1,-1,-1,-1],"split_conditions":[2.9068976E2,1E0,9.882436E2,7.6E1,1E0,1E0,1E0,1.8614078E-3,-1.0765041E-2,-1.729474E-3,1.4226757E-2,-1.5746976E-3,4.198102E-3,1.0607045E-2,3.3493925E-2],"split_indices":[0,14,0,4,15,2,7,0,0,0,0,0,0,0,0],"split_type":[0,0,0,0,0,0,0,0,0,0,0,0,0,0,0],"sum_hessian":[5.27E2,1.16E2,4.11E2,9.7E1,1.9E1,4.02E2,9E0,2.2E1,7.5E1,1.3E1,6E0,1.91E2,2.11E2,6E0,3E0],"tree_param":{"num_deleted":"0","num_feature":"17","num_nodes":"15","size_leaf_vector":"1"}},{"base_weights":[4.2760293E-3,-5.570386E-2,6.329452E-2,-1.8334514E-1,-6.032076E-3,5.3769622E-2,2.634403E-2,-1.1752135E-2,2.9121432E-4,-7.340297E-3,2.3668527E-3,5.223053E-3,-9.198895E-4],"categories":[],"categories_nodes":[],"categories_segments":[],"categories_sizes":[],"default_left":[0,0,0,0,0,0,0,0,0,0,0,0,0],"id":78,"left_children":[1,3,5,7,9,11,-1,-1,-1,-1,-1,-1,-1],"loss_changes":[1.7841067E0,1.5839366E0,1.0932348E0,6.859405E-1,1.3667986E0,9.164893E-1,0E0,0E0,0E0,0E0,0E0,0E0,0E0],"parents":[2147483647,0,0,1,1,2,2,3,3,4,4,5,5],"right_children":[2,4,6,8,10,12,-1,-1,-1,-1,-1,-1,-1],"split_conditions":[1E0,3.5100262E2,3.924378E1,1E0,2.2371382E1,1E0,2.634403E-2,-1.1752135E-2,2.9121432E-4,-7.340297E-3,2.3668527E-3,5.223053E-3,-9.198895E-4],"split_indices":[3,0,1,8,1,16,0,0,0,0,0,0,0],"split_type":[0,0,0,0,0,0,0,0,0,0,0,0,0],"sum_hessian":[5.02E2,2.49E2,2.53E2,6.9E1,1.8E2,2.49E2,4E0,5.4E1,1.5E1,4.9E1,1.31E2,1.46E2,1.03E2],"tree_param":{"num_deleted":"0","num_feature":"17","num_nodes":"13","size_leaf_vector":"1"}},{"base_weights":[2.2563795E-2,-4.2685013E-2,8.823258E-2,-7.1388446E-2,1.3709983E-1,3.6390144E-2,1.824024E-1,-6.801265E-3,1.5025298E-3,9.362276E-3,-1.5543843E-2,-1.772817E-2,2.4079666E-3,-2.3633994E-3,1.2183319E-2],"categories":[],"categories_nodes":[],"categories_segments":[],"categories_sizes":[],"default_left":[0,0,0,0,0,0,0,0,0,0,0,0,0,0,0],"id":79,"left_children":[1,3,5,7,9,11,13,-1,-1,-1,-1,-1,-1,-1,-1],"loss_changes":[2.2104433E0,1.346342E0,1.2480342E0,1.4727882E0,8.669174E-1,7.854768E-1,1.2919352E0,0E0,0E0,0E0,0E0,0E0,0E0,0E0,0E0],"parents":[2147483647,0,0,1,1,2,2,3,3,4,4,5,5,6,6],"right_children":[2,4,6,8,10,12,14,-1,-1,-1,-1,-1,-1,-1,-1],"split_conditions":[1E0,3.6900436E1,6.833995E2,1.14E2,1E0,6.1E1,2.1335659E1,-6.801265E-3,1.5025298E-3,9.362276E-3,-1.5543843E-2,-1.772817E-2,2.4079666E-3,-2.3633994E-3,1.2183319E-2],"split_indices":[2,1,0,4,13,4,1,0,0,0,0,0,0,0,0],"split_type":[0,0,0,0,0,0,0,0,0,0,0,0,0,0,0],"sum_hessian":[5.14E2,2.58E2,2.56E2,2.23E2,3.5E1,1.66E2,9E1,1.36E2,8.7E1,3.2E1,3E0,4E0,1.62E2,1.9E1,7.1E1],"tree_param":{"num_deleted":"0","num_feature":"17","num_nodes":"15","size_leaf_vector":"1"}},{"base_weights":[-8.465845E-3,-7.016379E-2,5.4752793E-2,-1.3268177E-1,4.7094007E-3,-5.9146415E-2,9.61544E-2,-1.1279693E-2,-3.6399406E-3,-2.5978691E-3,6.6826465E-3,1.418829E-3,-1.0857041E-2,1.6762717E-3,1.0745777E-2],"categories":[],"categories_nodes":[],"categories_segments":[],"categories_sizes":[],"default_left":[0,0,0,0,0,0,0,0,0,0,0,0,0,0,0],"id":80,"left_children":[1,3,5,7,9,11,13,-1,-1,-1,-1,-1,-1,-1,-1],"loss_changes":[1.9657731E0,1.1942598E0,1.1798741E0,7.5695205E-1,8.618415E-1,9.326472E-1,1.353928E0,0E0,0E0,0E0,0E0,0E0,0E0,0E0,0E0],"parents":[2147483647,0,0,1,1,2,2,3,3,4,4,5,5,6,6],"right_children":[2,4,6,8,10,12,14,-1,-1,-1,-1,-1,-1,-1,-1],"split_conditions":[1E0,1E0,2.139884E1,2.4072052E1,3.366496E1,1E0,6.486968E2,-1.1279693E-2,-3.6399406E-3,-2.5978691E-3,6.6826465E-3,1.418829E-3,-1.0857041E-2,1.6762717E-3,1.0745777E-2],"split_indices":[2,3,1,1,1,16,0,0,0,0,0,0,0,0,0],"split_type":[0,0,0,0,0,0,0,0,0,0,0,0,0,0,0],"sum_hessian":[5.02E2,2.54E2,2.48E2,1.38E2,1.16E2,6.6E1,1.82E2,5.3E1,8.5E1,8.1E1,3.5E1,4.3E1,2.3E1,1.2E2,6.2E1],"tree_param":{"num_deleted":"0","num_feature":"17","num_nodes":"15","size_leaf_vector":"1"}},{"base_weights":[-9.107448E-3,-5.019306E-2,8.94495E-2,-1.13735914E-1,1.7606407E-2,6.657496E-2,4.0532303E-1,-1.079815E-2,-2.536429E-3,-8.2281925E-4,9.54185E-3,5.2854866E-3,-3.2945857E-3,2.1790331E-2,3.274262E-3],"categories":[],"categories_nodes":[],"categories_segments":[],"categories_sizes":[],"default_left":[0,0,0,0,0,0,0,0,0,0,0,0,0,0,0],"id":81,"left_children":[1,3,5,7,9,11,13,-1,-1,-1,-1,-1,-1,-1,-1],"loss_changes":[2.0777173E0,1.5615609E0,1.0640606E0,1.1935215E0,1.0416667E0,7.4310106E-1,7.505584E-2,0E0,0E0,0E0,0E0,0E0,0E0,0E0,0E0],"parents":[2147483647,0,0,1,1,2,2,3,3,4,4,5,5,6,6],"right_children":[2,4,6,8,10,12,14,-1,-1,-1,-1,-1,-1,-1,-1],"split_conditions":[7.406804E2,1E0,3.8715923E1,2.4072052E1,1E0,1E0,1E0,-1.079815E-2,-2.536429E-3,-8.2281925E-4,9.54185E-3,5.2854866E-3,-3.2945857E-3,2.1790331E-2,3.274262E-3],"split_indices":[0,2,1,1,8,12,11,0,0,0,0,0,0,0,0],"split_type":[0,0,0,0,0,0,0,0,0,0,0,0,0,0,0],"sum_hessian":[5.11E2,3.61E2,1.5E2,1.86E2,1.75E2,1.41E2,9E0,7E1,1.16E2,1.47E2,2.8E1,1.09E2,3.2E1,8E0,1E0],"tree_param":{"num_deleted":"0","num_feature":"17","num_nodes":"15","size_leaf_vector":"1"}},{"base_weights":[-1.0573906E-2,-6.4800814E-2,4.141666E-2,-1.8691942E-1,-1.463624E-2,1.2737486E-1,-8.24444E-3,-1.6004851E-2,-3.452275E-3,1.1615923E-2,-1.8498981E-3,3.1675827E-3,1.6992303E-2,-7.1760165E-3,1.9911584E-3],"categories":[],"categories_nodes":[],"categories_segments":[],"categories_sizes":[],"default_left":[0,0,0,0,0,0,0,0,0,0,0,0,0,0,0],"id":82,"left_children":[1,3,5,7,9,11,13,-1,-1,-1,-1,-1,-1,-1,-1],"loss_changes":[1.4461591E0,1.5348976E0,1.1194702E0,1.1238647E0,9.970928E-1,1.2843665E0,1.0916142E0,0E0,0E0,0E0,0E0,0E0,0E0,0E0,0E0],"parents":[2147483647,0,0,1,1,2,2,3,3,4,4,5,5,6,6],"right_children":[2,4,6,8,10,12,14,-1,-1,-1,-1,-1,-1,-1,-1],"split_conditions":[1E0,2.1922E1,9.4E1,1.05E2,6.6E1,8.019316E2,1.08E2,-1.6004851E-2,-3.452275E-3,1.1615923E-2,-1.8498981E-3,3.1675827E-3,1.6992303E-2,-7.1760165E-3,1.9911584E-3],"split_indices":[3,1,4,4,4,0,4,0,0,0,0,0,0,0,0],"split_type":[0,0,0,0,0,0,0,0,0,0,0,0,0,0,0],"sum_hessian":[5.11E2,2.5E2,2.61E2,7.2E1,1.78E2,9.5E1,1.66E2,3.3E1,3.9E1,1.4E1,1.64E2,7.4E1,2.1E1,4.3E1,1.23E2],"tree_param":{"num_deleted":"0","num_feature":"17","num_nodes":"15","size_leaf_vector":"1"}},{"base_weights":[2.5947313E-3,-1.4014548E-1,2.959379E-2,-9.974452E-2,-3.7423915E-1,-2.4256848E-2,8.25911E-2,-6.350597E-3,1.4824735E-2,-2.1771979E-2,7.4741365E-3,-7.367617E-3,1.2334699E-3,2.2635034E-3,1.3203821E-2],"categories":[],"categories_nodes":[],"categories_segments":[],"categories_sizes":[],"default_left":[0,0,0,0,0,0,0,0,0,0,0,0,0,0,0],"id":83,"left_children":[1,3,5,7,9,11,13,-1,-1,-1,-1,-1,-1,-1,-1],"loss_changes":[2.035127E0,7.571107E-1,1.2691524E0,8.263809E-1,4.4971454E-1,1.3346298E0,1.5052463E0,0E0,0E0,0E0,0E0,0E0,0E0,0E0,0E0],"parents":[2147483647,0,0,1,1,2,2,3,3,4,4,5,5,6,6],"right_children":[2,4,6,8,10,12,14,-1,-1,-1,-1,-1,-1,-1,-1],"split_conditions":[2.5282362E2,1E0,1E0,3.8451664E1,1.36E2,2.225704E1,1E0,-6.350597E-3,1.4824735E-2,-2.1771979E-2,7.4741365E-3,-7.367617E-3,1.2334699E-3,2.2635034E-3,1.3203821E-2],"split_indices":[0,13,3,1,4,1,14,0,0,0,0,0,0,0,0],"split_type":[0,0,0,0,0,0,0,0,0,0,0,0,0,0,0],"sum_hessian":[5.26E2,8.3E1,4.43E2,7.2E1,1.1E1,2.2E2,2.23E2,6.8E1,4E0,1E1,1E0,6.2E1,1.58E2,1.86E2,3.7E1],"tree_param":{"num_deleted":"0","num_feature":"17","num_nodes":"15","size_leaf_vector":"1"}},{"base_weights":[1.4938169E-2,-2.9472253E-1,2.4739029E-2,-1.8365364E-1,-5.023433E-1,4.815726E-2,-1.0185472E-1,-3.170194E-3,-1.4666805E-2,-6.3789645E-3,-3.548298E-2,-2.024812E-2,2.670593E-3,-7.860838E-3,8.3206585E-3],"categories":[],"categories_nodes":[],"categories_segments":[],"categories_sizes":[],"default_left":[0,0,0,0,0,0,0,0,0,0,0,0,0,0,0],"id":84,"left_children":[1,3,5,7,9,11,13,-1,-1,-1,-1,-1,-1,-1,-1],"loss_changes":[1.5824254E0,2.767061E-1,1.4990643E0,1.3967282E-1,2.979355E-1,1.0359197E0,1.1994598E0,0E0,0E0,0E0,0E0,0E0,0E0,0E0,0E0],"parents":[2147483647,0,0,1,1,2,2,3,3,4,4,5,5,6,6],"right_children":[2,4,6,8,10,12,14,-1,-1,-1,-1,-1,-1,-1,-1],"split_conditions":[1.389385E2,1E0,1E0,1.15969765E2,1E0,6.1E1,1E0,-3.170194E-3,-1.4666805E-2,-6.3789645E-3,-3.548298E-2,-2.024812E-2,2.670593E-3,-7.860838E-3,8.3206585E-3],"split_indices":[0,12,13,0,15,4,8,0,0,0,0,0,0,0,0],"split_type":[0,0,0,0,0,0,0,0,0,0,0,0,0,0,0],"sum_hessian":[5.18E2,1.5E1,5.03E2,1.1E1,4E0,4.25E2,7.8E1,6E0,5E0,2E0,2E0,4E0,4.21E2,6.5E1,1.3E1],"tree_param":{"num_deleted":"0","num_feature":"17","num_nodes":"15","size_leaf_vector":"1"}},{"base_weights":[-5.67502E-3,-9.386467E-2,4.5221817E-2,-1.684782E-1,-6.5863812E-3,2.3916872E-2,1.7794538E-1,-3.1776093E-2,-7.5978E-3,5.9535042E-3,-8.091513E-3,-1.5192102E-3,3.7278165E-3,1.7812155E-2,4.871759E-3],"categories":[],"categories_nodes":[],"categories_segments":[],"categories_sizes":[],"default_left":[0,0,0,0,0,0,0,0,0,0,0,0,0,0,0],"id":85,"left_children":[1,3,5,7,9,11,13,-1,-1,-1,-1,-1,-1,-1,-1],"loss_changes":[2.2081347E0,1.1710756E0,8.779766E-1,6.5193796E-1,1.6578904E0,7.4470514E-1,5.8254516E-1,0E0,0E0,0E0,0E0,0E0,0E0,0E0,0E0],"parents":[2147483647,0,0,1,1,2,2,3,3,4,4,5,5,6,6],"right_children":[2,4,6,8,10,12,14,-1,-1,-1,-1,-1,-1,-1,-1],"split_conditions":[4.3838098E2,1E0,3.64104E1,1.075587E2,2.7556679E1,1E0,3.770028E1,-3.1776093E-2,-7.5978E-3,5.9535042E-3,-8.091513E-3,-1.5192102E-3,3.7278165E-3,1.7812155E-2,4.871759E-3],"split_indices":[0,2,1,0,1,2,1,0,0,0,0,0,0,0,0],"split_type":[0,0,0,0,0,0,0,0,0,0,0,0,0,0,0],"sum_hessian":[4.9E2,1.79E2,3.11E2,9.6E1,8.3E1,2.69E2,4.2E1,2E0,9.4E1,4.6E1,3.7E1,1.3E2,1.39E2,1.2E1,3E1],"tree_param":{"num_deleted":"0","num_feature":"17","num_nodes":"15","size_leaf_vector":"1"}},{"base_weights":[-1.1405973E-2,-3.5728868E-2,1.07362434E-1,-6.295498E-2,6.62409E-2,-9.356791E-3,2.1921031E-1,-3.5553635E-3,1.4569337E-2,1.2104674E-2,-8.612509E-4,5.3644218E-3,-4.554696E-3,8.981173E-3,2.5394892E-2],"categories":[],"categories_nodes":[],"categories_segments":[],"categories_sizes":[],"default_left":[0,0,0,0,0,0,0,0,0,0,0,0,0,0,0],"id":86,"left_children":[1,3,5,7,9,11,13,-1,-1,-1,-1,-1,-1,-1,-1],"loss_changes":[1.5291178E0,1.2229395E0,1.176983E0,1.0230973E0,1.3691959E0,4.3881437E-1,4.3446803E-1,0E0,0E0,0E0,0E0,0E0,0E0,0E0,0E0],"parents":[2147483647,0,0,1,1,2,2,3,3,4,4,5,5,6,6],"right_children":[2,4,6,8,10,12,14,-1,-1,-1,-1,-1,-1,-1,-1],"split_conditions":[1E0,3.4336163E1,1E0,9.882436E2,8E1,4.8284552E2,8.887951E2,-3.5553635E-3,1.4569337E-2,1.2104674E-2,-8.612509E-4,5.3644218E-3,-4.554696E-3,8.981173E-3,2.5394892E-2],"split_indices":[14,1,3,0,4,0,0,0,0,0,0,0,0,0,0],"split_type":[0,0,0,0,0,0,0,0,0,0,0,0,0,0,0],"sum_hessian":[5.27E2,4.38E2,8.9E1,3.46E2,9.2E1,4.4E1,4.5E1,3.39E2,7E0,2.9E1,6.3E1,1.8E1,2.6E1,4.1E1,4E0],"tree_param":{"num_deleted":"0","num_feature":"17","num_nodes":"15","size_leaf_vector":"1"}},{"base_weights":[-1.6713101E-2,-2.6259307E-2,3.13427E-1,-4.2522E-3,-1.4641997E-1,1.8837523E-1,3.0511279E-2,-4.2708735E-3,1.831148E-3,-8.448884E-3,2.4444342E-2,5.1076813E-3,1.6764004E-2],"categories":[],"categories_nodes":[],"categories_segments":[],"categories_sizes":[],"default_left":[0,0,0,0,0,0,0,0,0,0,0,0,0],"id":87,"left_children":[1,3,5,7,9,11,-1,-1,-1,-1,-1,-1,-1],"loss_changes":[1.6817222E0,1.3665264E0,4.417764E-1,1.4562562E0,1.2290957E0,1.1774641E-1,0E0,0E0,0E0,0E0,0E0,0E0,0E0],"parents":[2147483647,0,0,1,1,2,2,3,3,4,4,5,5],"right_children":[2,4,6,8,10,12,-1,-1,-1,-1,-1,-1,-1],